{"learner":{"attributes":{"best_iteration":"107","best_score":"0.5583701277006519"},"feature_names":["prompt_word_count","cat_if_score","cat_math","cat_coding","cat_creative_writing","cat_instruction_following","cat_complexity","cat_creativity","cat_domain_knowledge","cat_problem_solving","cat_real_world","cat_specificity","cat_technical_accuracy","is_code","meta_user_tokens","meta_turns","flesch_kincaid_grade","coleman_liau_index","automated_readability","reading_ease","n_questions","n_code_fences","n_urls","has_numbered_list","n_negation_constraints","n_positive_constraints","n_sub_tasks","has_persona_instruction","has_output_format","total_constraints","char_entropy","word_entropy","relative_prompt_length","log_prompt_length","non_ascii_ratio","is_english","emb_00","emb_01","emb_02","emb_03","emb_04","emb_05","emb_06","emb_07","emb_08","emb_09","emb_10","emb_11","emb_12","emb_13","emb_14","emb_15","emb_16","emb_17","emb_18","emb_19","emb_20","emb_21","emb_22","emb_23","emb_24","emb_25","emb_26","emb_27","emb_28","emb_29","emb_30","emb_31","emb_32","emb_33","emb_34","emb_35","emb_36","emb_37","emb_38","emb_39","emb_40","emb_41","emb_42","emb_43","emb_44","emb_45","emb_46","emb_47","domain_chat","domain_code","domain_creative_writing","domain_math_science"],"feature_types":[],"gradient_booster":{"model":{"cats":{"enc":[],"feature_segments":[],"sorted_idx":[]},"gbtree_model_param":{"num_parallel_tree":"1","num_trees":"158"},"iteration_indptr":[0,1,2,3,4,5,6,7,8,9,10,11,12,13,14,15,16,17,18,19,20,21,22,23,24,25,26,27,28,29,30,31,32,33,34,35,36,37,38,39,40,41,42,43,44,45,46,47,48,49,50,51,52,53,54,55,56,57,58,59,60,61,62,63,64,65,66,67,68,69,70,71,72,73,74,75,76,77,78,79,80,81,82,83,84,85,86,87,88,89,90,91,92,93,94,95,96,97,98,99,100,101,102,103,104,105,106,107,108,109,110,111,112,113,114,115,116,117,118,119,120,121,122,123,124,125,126,127,128,129,130,131,132,133,134,135,136,137,138,139,140,141,142,143,144,145,146,147,148,149,150,151,152,153,154,155,156,157,158],"tree_info":[0,0,0,0,0,0,0,0,0,0,0,0,0,0,0,0,0,0,0,0,0,0,0,0,0,0,0,0,0,0,0,0,0,0,0,0,0,0,0,0,0,0,0,0,0,0,0,0,0,0,0,0,0,0,0,0,0,0,0,0,0,0,0,0,0,0,0,0,0,0,0,0,0,0,0,0,0,0,0,0,0,0,0,0,0,0,0,0,0,0,0,0,0,0,0,0,0,0,0,0,0,0,0,0,0,0,0,0,0,0,0,0,0,0,0,0,0,0,0,0,0,0,0,0,0,0,0,0,0,0,0,0,0,0,0,0,0,0,0,0,0,0,0,0,0,0,0,0,0,0,0,0,0,0,0,0,0,0],"trees":[{"base_weights":[-1.6245053E-3,1.75705E-1,-3.2152325E-2,2.086489E-1,-2.7624968E-1,3.2825158E-3,-1.3919596E-1,6.510277E-2,2.7924812E-1,-4.1485307E-1,2.433672E-1,-1.7255044E-1,3.2487787E-2,-1.7682411E-1,7.07575E-2,-4.5072144E-1,1.2237502E-1,-1.0358082E-1,3.0727017E-1,-2.0402744E-2,-6.212496E-1,4.4005975E-2,-2.5841212E-2,-1.5695217E-1,-7.2020866E-2,-9.716491E-3,1.4662531E-1,-2.3349018E-1,-3.3936165E-2,4.2458117E-1,-4.3568254E-2,3.5492813E-3,-7.775005E-1,-3.688288E-1,1.7614739E-1,3.555518E-2,-2.6367974E-1,3.197258E-1,-2.1964094E-2,2.7945343E-2,-2.2861222E-2,-5.3551894E-2,-3.862042E-1,-2.676144E-1,-1.9141516E-2,-5.845034E-2,8.521655E-2,-4.303815E-2,1.5363324E-1,-3.6951864E-1,-1.7680426E-1,-5.663024E-2,3.125794E-2,5.967041E-1,-1.7617222E-2,1.632843E-1,-1.7053036E-1,-8.94694E-3,-5.6292307E-2,7.939517E-3,-3.1748354E-2,-2.1706449E-2,1.0800604E-2,4.1106963E-3,-3.2075424E-2,1.059093E-2,2.0472784E-2,-3.1499866E-2,3.5857246E-3,-8.020007E-3,-2.5263537E-2,-1.36778E-2,5.994019E-3,-4.1811983E-3,8.19056E-3,-2.552777E-3,7.917703E-3,-1.9239457E-3,9.548186E-3,-6.4852634E-3,-2.532768E-2,-5.7880613E-3,-1.5769416E-2,1.4179295E-3,-1.1421485E-2,1.5503483E-2,4.838034E-2,-2.5383165E-2,1.3084662E-2,-3.59937E-2,-4.138207E-3],"categories":[],"categories_nodes":[],"categories_segments":[],"categories_sizes":[],"default_left":[0,0,0,0,0,0,0,0,0,0,0,0,0,0,0,0,0,0,0,0,0,0,0,0,0,0,0,0,0,0,0,0,0,0,0,0,0,0,0,0,0,0,0,0,0,0,0,0,0,0,0,0,0,0,0,0,0,0,0,0,0,0,0,0,0,0,0,0,0,0,0,0,0,0,0,0,0,0,0,0,0,0,0,0,0,0,0,0,0,0,0],"id":0,"left_children":[1,3,5,7,9,11,13,15,17,19,21,23,25,27,29,31,33,35,37,39,41,-1,-1,43,-1,45,47,49,51,53,55,-1,57,59,61,-1,63,65,-1,-1,-1,-1,67,69,71,73,75,-1,77,79,81,83,-1,85,-1,87,89,-1,-1,-1,-1,-1,-1,-1,-1,-1,-1,-1,-1,-1,-1,-1,-1,-1,-1,-1,-1,-1,-1,-1,-1,-1,-1,-1,-1,-1,-1,-1,-1,-1,-1],"loss_changes":[6.0397034E1,2.4446697E1,3.6127495E1,1.5432037E1,8.151519E0,3.672553E1,1.873544E1,1.4956156E1,1.1031387E1,7.1344814E0,1.20921755E1,1.9758007E1,2.9571434E1,1.6234459E1,1.4631023E1,8.744871E0,1.2088751E1,9.31313E0,9.000824E0,8.248837E0,5.567093E0,0E0,0E0,1.532939E1,0E0,2.072736E1,1.1759682E1,1.0968796E1,8.53786E0,1.2041947E1,7.1982903E0,0E0,6.1916275E0,6.485272E0,1.0090934E1,0E0,7.896825E0,8.94487E0,0E0,0E0,0E0,0E0,4.54086E0,1.4076725E1,1.5969308E1,1.657511E1,1.5160911E1,0E0,1.1830925E1,1.3724392E1,8.528019E0,8.119198E0,0E0,7.307293E0,0E0,6.9780207E0,8.054502E0,0E0,0E0,0E0,0E0,0E0,0E0,0E0,0E0,0E0,0E0,0E0,0E0,0E0,0E0,0E0,0E0,0E0,0E0,0E0,0E0,0E0,0E0,0E0,0E0,0E0,0E0,0E0,0E0,0E0,0E0,0E0,0E0,0E0,0E0],"parents":[2147483647,0,0,1,1,2,2,3,3,4,4,5,5,6,6,7,7,8,8,9,9,10,10,11,11,12,12,13,13,14,14,15,15,16,16,17,17,18,18,19,19,20,20,23,23,25,25,26,26,27,27,28,28,29,29,30,30,32,32,33,33,34,34,36,36,37,37,42,42,43,43,44,44,45,45,46,46,48,48,49,49,50,50,51,51,53,53,55,55,56,56],"right_children":[2,4,6,8,10,12,14,16,18,20,22,24,26,28,30,32,34,36,38,40,42,-1,-1,44,-1,46,48,50,52,54,56,-1,58,60,62,-1,64,66,-1,-1,-1,-1,68,70,72,74,76,-1,78,80,82,84,-1,86,-1,88,90,-1,-1,-1,-1,-1,-1,-1,-1,-1,-1,-1,-1,-1,-1,-1,-1,-1,-1,-1,-1,-1,-1,-1,-1,-1,-1,-1,-1,-1,-1,-1,-1,-1,-1],"split_conditions":[-1.5644439E-1,8.071196E-2,1.03E2,3.8041074E0,1.0156514E-1,3.6314018E0,1.6969812E-1,-9.600922E-2,-8.545095E-2,-1.4332494E-2,3.0996948E-2,1E0,8.2666144E-2,1.1006598E-1,1.89E2,-1.5958935E-2,-8.473317E-2,-7.767068E-2,1.8307777E1,1.30346175E-2,-2.5778579E-2,4.4005975E-2,-2.5841212E-2,-6.7516156E-3,-7.2020866E-2,4.8544146E-2,-2.417039E-1,3.1354942E0,1.2952513E-1,8.655931E-2,-2.639948E-2,3.5492813E-3,-1.5960395E-2,-6.264287E-2,-9.483519E-2,3.555518E-2,5.1E1,-9.135063E-3,-2.1964094E-2,2.7945343E-2,-2.2861222E-2,-5.3551894E-2,3.061362E-2,5.906227E-2,-3.0015845E-2,9.1620095E-2,-6.558133E-2,-4.303815E-2,1E0,-9.628038E-3,2.2181958E-2,4.338838E-2,3.125794E-2,4E0,-1.7617222E-2,-6.5E-1,-4.5159735E-2,-8.94694E-3,-5.6292307E-2,7.939517E-3,-3.1748354E-2,-2.1706449E-2,1.0800604E-2,4.1106963E-3,-3.2075424E-2,1.059093E-2,2.0472784E-2,-3.1499866E-2,3.5857246E-3,-8.020007E-3,-2.5263537E-2,-1.36778E-2,5.994019E-3,-4.1811983E-3,8.19056E-3,-2.552777E-3,7.917703E-3,-1.9239457E-3,9.548186E-3,-6.4852634E-3,-2.532768E-2,-5.7880613E-3,-1.5769416E-2,1.4179295E-3,-1.1421485E-2,1.5503483E-2,4.838034E-2,-2.5383165E-2,1.3084662E-2,-3.59937E-2,-4.138207E-3],"split_indices":[38,36,14,30,60,30,41,61,69,52,47,29,37,43,14,57,82,60,16,80,53,0,0,66,0,40,47,33,69,36,71,0,56,73,58,0,14,82,0,0,0,0,68,58,61,75,41,0,8,46,78,56,0,1,0,17,58,0,0,0,0,0,0,0,0,0,0,0,0,0,0,0,0,0,0,0,0,0,0,0,0,0,0,0,0,0,0,0,0,0,0],"split_type":[0,0,0,0,0,0,0,0,0,0,0,0,0,0,0,0,0,0,0,0,0,0,0,0,0,0,0,0,0,0,0,0,0,0,0,0,0,0,0,0,0,0,0,0,0,0,0,0,0,0,0,0,0,0,0,0,0,0,0,0,0,0,0,0,0,0,0,0,0,0,0,0,0,0,0,0,0,0,0,0,0,0,0,0,0,0,0,0,0,0,0],"sum_hessian":[1.1157387E4,1.637496E3,9.519891E3,1.5269529E3,1.1054312E2,7.1522905E3,2.3676E3,5.0450488E2,1.02244794E3,8.757682E1,2.2966307E1,1.01757245E3,6.134718E3,2.0083033E3,3.5929684E2,4.955654E1,4.5494833E2,6.9308685E1,9.531393E2,3.0627357E1,5.694946E1,1.2483582E1,1.0482724E1,1.0063937E3,1.1178755E1,4.4786865E3,1.6560314E3,1.4370632E3,5.712402E2,8.729398E1,2.7200287E2,1.9269419E1,3.0287123E1,4.4127785E1,4.1082056E2,1.0715449E1,5.8593235E1,9.3819196E2,1.4947316E1,1.2947745E1,1.7679613E1,1.8179184E1,3.8770275E1,5.572519E2,4.491418E2,2.9604026E3,1.518284E3,1.0500428E1,1.6455309E3,4.205624E2,1.0165008E3,5.5325616E2,1.798401E1,7.1757286E1,1.5536694E1,1.0304441E2,1.6895847E2,1.1804399E1,1.8482725E1,1.4804827E1,2.932296E1,2.443004E1,3.863905E2,3.0859653E1,2.7733582E1,4.2798334E2,5.1020862E2,2.5197744E1,1.3572531E1,3.8545618E2,1.717957E2,1.586178E2,2.9052402E2,2.6601807E3,3.0022174E2,5.298974E2,9.883867E2,2.6728827E2,1.3782427E3,1.5390407E2,2.6665836E2,7.0744476E2,3.0905597E2,3.7031497E2,1.829412E2,4.1664482E1,3.0092806E1,1.2518561E1,9.052585E1,2.2126072E1,1.4683238E2],"tree_param":{"num_deleted":"0","num_feature":"88","num_nodes":"91","size_leaf_vector":"1"}},{"base_weights":[5.8070477E-3,3.0982298E-1,-1.5348758E-2,7.233711E-1,2.7531895E-1,-3.820527E-2,1.3338196E-1,8.9790285E-1,4.639872E-3,-2.8453293E-1,2.985181E-1,-9.911248E-2,9.535095E-3,-1.24020405E-1,1.6173378E-1,1.1023381E0,1.8473541E-2,1.8824346E-2,-4.7592618E-2,-1.7441466E-1,3.3080015E-1,-1.117954E-1,3.781782E-1,6.7790024E-2,-4.5480177E-2,-2.169688E-1,4.221881E-2,7.4737257E-1,1.4732212E-1,7.112785E-2,2.999731E-2,1.5522878E-2,-4.6250534E-1,3.6353412E-1,-1.0708574E-1,-8.140153E-2,-2.76356E-1,1.4957242E-1,8.735483E-1,1.8514614E-1,1.4368673E-2,-1.6050853E-1,1.1113752E-2,9.9377E-2,-4.557497E-1,7.619253E-3,6.196859E-2,4.9542133E-2,1.3739079E-1,-3.924427E-2,2.0322166E-3,1.201692E-2,2.3240464E-2,-2.7692541E-2,2.8114824E-2,-2.5015442E-2,-3.596202E-3,-1.604147E-2,4.252624E-3,1.9021546E-2,-2.3647701E-2,6.819556E-2,2.8887004E-2,-3.7175115E-2,1.0117917E-2,-4.4468907E-3,4.9700667E-3,-1.1848803E-2,3.971211E-3,1.6384851E-3,-1.6702322E-2,3.6124688E-2,-1.288065E-2,-9.496097E-3,-4.689801E-2,9.993284E-3,5.701856E-4],"categories":[],"categories_nodes":[],"categories_segments":[],"categories_sizes":[],"default_left":[0,0,0,0,0,0,0,0,0,0,0,0,0,0,0,0,0,0,0,0,0,0,0,0,0,0,0,0,0,0,0,0,0,0,0,0,0,0,0,0,0,0,0,0,0,0,0,0,0,0,0,0,0,0,0,0,0,0,0,0,0,0,0,0,0,0,0,0,0,0,0,0,0,0,0,0,0],"id":1,"left_children":[1,3,5,7,9,11,13,15,-1,17,19,21,23,25,27,29,-1,-1,-1,31,33,35,37,39,41,43,-1,45,47,-1,-1,-1,49,51,53,55,57,59,61,63,65,67,69,71,73,-1,-1,-1,75,-1,-1,-1,-1,-1,-1,-1,-1,-1,-1,-1,-1,-1,-1,-1,-1,-1,-1,-1,-1,-1,-1,-1,-1,-1,-1,-1,-1],"loss_changes":[7.209408E1,1.0107162E1,3.5606937E1,5.906254E0,8.852753E0,2.6416538E1,1.0204676E1,4.100666E0,0E0,1.2412601E1,9.978142E0,2.4177837E1,1.6321644E1,1.2598646E1,1.0413116E1,3.8397408E0,0E0,0E0,0E0,6.013255E0,8.777359E0,1.9393772E1,1.14700775E1,1.5487691E1,1.7059923E1,9.702785E0,0E0,8.3918705E0,1.0043655E1,0E0,0E0,0E0,4.456926E0,6.8796997E0,1.31218815E1,1.2947836E1,9.781422E0,1.05262165E1,3.7012386E0,1.2455692E1,1.495897E1,1.5885868E1,1.3099581E1,1.25631E1,9.059848E0,0E0,0E0,0E0,9.544748E0,0E0,0E0,0E0,0E0,0E0,0E0,0E0,0E0,0E0,0E0,0E0,0E0,0E0,0E0,0E0,0E0,0E0,0E0,0E0,0E0,0E0,0E0,0E0,0E0,0E0,0E0,0E0,0E0],"parents":[2147483647,0,0,1,1,2,2,3,3,4,4,5,5,6,6,7,7,9,9,10,10,11,11,12,12,13,13,14,14,15,15,19,19,20,20,21,21,22,22,23,23,24,24,25,25,27,27,28,28,32,32,33,33,34,34,35,35,36,36,37,37,38,38,39,39,40,40,41,41,42,42,43,43,44,44,48,48],"right_children":[2,4,6,8,10,12,14,16,-1,18,20,22,24,26,28,30,-1,-1,-1,32,34,36,38,40,42,44,-1,46,48,-1,-1,-1,50,52,54,56,58,60,62,64,66,68,70,72,74,-1,-1,-1,76,-1,-1,-1,-1,-1,-1,-1,-1,-1,-1,-1,-1,-1,-1,-1,-1,-1,-1,-1,-1,-1,-1,-1,-1,-1,-1,-1,-1],"split_conditions":[-3.259662E-1,-9.566199E-2,1.6955337E-1,8.5928254E-2,-1.06E0,1E0,-7.749007E-2,9.411085E-2,4.639872E-3,-1.21942805E-2,-9.6074805E-2,2.4676207E-1,3E0,5.617702E-2,-1.175181E-1,6.358118E-3,1.8473541E-2,1.8824346E-2,-4.7592618E-2,3.5426468E-2,9.378069E-2,9.942221E-2,2.238686E-1,1E0,1.5294118E0,-1.5796136E-2,4.221881E-2,-5.580873E-2,-1.3939644E-1,7.112785E-2,2.999731E-2,1.5522878E-2,-3.4565933E-3,-5.7746163E-3,1.5997559E-2,-1.8298486E-1,2.1962704E-1,2.5045276E-1,-9.469469E-4,-1.9914262E-1,-3.1887735E-3,5.3333336E-1,2.176E1,1.9103892E-2,1.12E1,7.619253E-3,6.196859E-2,4.9542133E-2,9.138696E-3,-3.924427E-2,2.0322166E-3,1.201692E-2,2.3240464E-2,-2.7692541E-2,2.8114824E-2,-2.5015442E-2,-3.596202E-3,-1.604147E-2,4.252624E-3,1.9021546E-2,-2.3647701E-2,6.819556E-2,2.8887004E-2,-3.7175115E-2,1.0117917E-2,-4.4468907E-3,4.9700667E-3,-1.1848803E-2,3.971211E-3,1.6384851E-3,-1.6702322E-2,3.6124688E-2,-1.288065E-2,-9.496097E-3,-4.689801E-2,9.993284E-3,5.701856E-4],"split_indices":[37,55,37,45,16,10,81,43,0,48,41,41,1,67,76,57,0,0,0,45,64,48,46,11,32,46,0,42,70,0,0,0,65,82,47,53,42,42,62,49,67,34,16,53,17,0,0,0,44,0,0,0,0,0,0,0,0,0,0,0,0,0,0,0,0,0,0,0,0,0,0,0,0,0,0,0,0],"split_type":[0,0,0,0,0,0,0,0,0,0,0,0,0,0,0,0,0,0,0,0,0,0,0,0,0,0,0,0,0,0,0,0,0,0,0,0,0,0,0,0,0,0,0,0,0,0,0,0,0,0,0,0,0,0,0,0,0,0,0,0,0,0,0,0,0,0,0,0,0,0,0,0,0,0,0,0,0],"sum_hessian":[1.1202857E4,7.2828217E2,1.0474575E4,5.432362E1,6.7395856E2,9.080521E3,1.3940531E3,4.2091026E1,1.2232594E1,2.6196548E1,6.47762E2,3.9904807E3,5.090041E3,1.3762967E2,1.2564235E3,2.9430079E1,1.2660949E1,1.3304054E1,1.2892494E1,4.0911243E1,6.0685077E2,3.8881375E3,1.0234321E2,2.473E3,2.617041E3,1.2637882E2,1.1250846E1,2.8787891E1,1.2276356E3,1.6733637E1,1.2696442E1,1.5089702E1,2.5821539E1,5.650117E2,4.183904E1,3.283742E3,6.0439557E2,7.105583E1,3.1287376E1,7.7222876E2,1.7007712E3,8.62969E2,1.7540719E3,5.4431267E1,7.194755E1,1.3714983E1,1.5072908E1,1.3019044E1,1.2146166E3,1.5517749E1,1.0303791E1,2.5688528E2,3.0812646E2,2.528505E1,1.655399E1,7.126955E1,3.2124724E3,5.3851697E2,6.587862E1,5.2234608E1,1.8821224E1,1.0286515E1,2.1000862E1,1.31789665E1,7.590498E2,7.673243E2,9.3344696E2,6.547323E2,2.0823665E2,1.65164E3,1.0243198E2,1.9554928E1,3.487634E1,4.741201E1,2.453554E1,8.110502E2,4.0356638E2],"tree_param":{"num_deleted":"0","num_feature":"88","num_nodes":"77","size_leaf_vector":"1"}},{"base_weights":[-7.663224E-3,-5.8017228E-2,9.358594E-2,-1.2511997E-2,-1.8511374E-1,1.4408584E-1,-8.634406E-2,4.74338E-2,-1.5714335E-1,-2.8120798E-1,-1.11562155E-1,3.7892442E-2,2.0319843E-1,6.88093E-2,-1.6210869E-1,-4.0747534E-2,1.03482105E-1,-2.7870154E-1,-7.791621E-2,-2.6984394E-1,-5.3450216E-2,5.140828E-1,-1.2891874E-1,1.0578414E-1,-1.4403756E-1,-1.6611515E-2,2.3287879E-1,4.2418275E-2,3.354803E-2,-3.2206917E-1,2.4623249E-2,-1.7885521E-1,4.3185245E-2,7.249634E-2,3.320046E-1,-4.845778E-1,-1.7194705E-1,9.4427615E-2,-1.760886E-1,-2.8469712E-1,1.6210055E-2,4.7773734E-2,-1.6013635E-2,-2.853169E-1,-6.09881E-2,-2.125528E-1,1.5846622E-1,-4.1406088E-2,-5.7222104E-1,-1.4564508E-1,3.343832E-1,1.2981257E-1,3.1849676E-1,1.7689086E-1,-1.8755578E-1,-5.5085516E-1,-1.3776602E-1,2.840095E-1,-7.214598E-2,-1.585923E-2,8.6969166E-4,-9.685562E-3,6.047823E-3,-1.0248258E-2,5.1844264E-3,1.3348634E-2,4.5801435E-2,-2.9776642E-2,-4.3738238E-3,1.1756721E-2,-1.1101772E-2,8.2160635E-3,-1.0257869E-2,-4.466168E-3,-1.9032976E-2,-1.2049755E-2,-2.4493126E-2,-3.8072646E-3,-2.0717328E-2,-6.0292496E-3,8.3343005E-3,-2.0580774E-2,1.6949356E-2,-2.2167357E-2,8.893438E-3,-1.6343385E-2,6.253204E-3,-5.2935638E-2,-1.4038816E-2,-1.4395713E-2,1.2165273E-2,4.2294424E-2,3.4697116E-3,7.546016E-3,-2.406065E-2,1.4776881E-2,4.117103E-2,2.1901151E-2,-6.0317274E-3,1.2955106E-4,-3.6613803E-2,-3.3051442E-2,1.0396729E-2,-1.121751E-2,2.8429812E-2,6.4941733E-3,4.8024762E-2,3.223012E-2,-6.5511516E-3],"categories":[],"categories_nodes":[],"categories_segments":[],"categories_sizes":[],"default_left":[0,0,0,0,0,0,0,0,0,0,0,0,0,0,0,0,0,0,0,0,0,0,0,0,0,0,0,0,0,0,0,0,0,0,0,0,0,0,0,0,0,0,0,0,0,0,0,0,0,0,0,0,0,0,0,0,0,0,0,0,0,0,0,0,0,0,0,0,0,0,0,0,0,0,0,0,0,0,0,0,0,0,0,0,0,0,0,0,0,0,0,0,0,0,0,0,0,0,0,0,0,0,0,0,0,0,0,0,0],"id":2,"left_children":[1,3,5,7,9,11,13,15,17,19,21,23,25,27,29,31,33,35,37,39,-1,41,43,45,47,49,51,-1,53,55,57,59,61,63,65,67,69,71,73,75,-1,-1,-1,77,79,81,83,85,87,89,91,93,95,97,99,101,103,105,107,-1,-1,-1,-1,-1,-1,-1,-1,-1,-1,-1,-1,-1,-1,-1,-1,-1,-1,-1,-1,-1,-1,-1,-1,-1,-1,-1,-1,-1,-1,-1,-1,-1,-1,-1,-1,-1,-1,-1,-1,-1,-1,-1,-1,-1,-1,-1,-1,-1,-1],"loss_changes":[5.70308E1,4.3191685E1,3.3774708E1,4.7734768E1,1.3847748E1,1.8183075E1,9.593407E0,1.9242367E1,1.5480789E1,7.210045E0,1.2164996E1,1.2850329E1,1.2181198E1,7.235387E0,1.6403254E1,1.7549871E1,1.6788351E1,1.3823433E1,1.6583134E1,7.516613E0,0E0,1.1497152E1,1.1512348E1,1.2739622E1,1.2329752E1,1.0092755E1,1.4403603E1,0E0,8.179015E0,1.2313734E1,6.403063E0,1.55703945E1,1.735118E1,1.8164349E1,1.0405123E1,9.406197E0,8.625365E0,7.4723067E0,1.09986E1,7.1793747E0,0E0,0E0,0E0,8.796091E0,1.0335751E1,1.1980225E1,7.6558304E0,1.0950541E1,7.27561E0,9.1145935E0,7.9579983E0,9.677936E0,1.0028473E1,1.2262105E1,1.0568609E1,1.1154896E1,1.0197673E1,6.9961977E0,7.8440084E0,0E0,0E0,0E0,0E0,0E0,0E0,0E0,0E0,0E0,0E0,0E0,0E0,0E0,0E0,0E0,0E0,0E0,0E0,0E0,0E0,0E0,0E0,0E0,0E0,0E0,0E0,0E0,0E0,0E0,0E0,0E0,0E0,0E0,0E0,0E0,0E0,0E0,0E0,0E0,0E0,0E0,0E0,0E0,0E0,0E0,0E0,0E0,0E0,0E0,0E0],"parents":[2147483647,0,0,1,1,2,2,3,3,4,4,5,5,6,6,7,7,8,8,9,9,10,10,11,11,12,12,13,13,14,14,15,15,16,16,17,17,18,18,19,19,21,21,22,22,23,23,24,24,25,25,26,26,28,28,29,29,30,30,31,31,32,32,33,33,34,34,35,35,36,36,37,37,38,38,39,39,43,43,44,44,45,45,46,46,47,47,48,48,49,49,50,50,51,51,52,52,53,53,54,54,55,55,56,56,57,57,58,58],"right_children":[2,4,6,8,10,12,14,16,18,20,22,24,26,28,30,32,34,36,38,40,-1,42,44,46,48,50,52,-1,54,56,58,60,62,64,66,68,70,72,74,76,-1,-1,-1,78,80,82,84,86,88,90,92,94,96,98,100,102,104,106,108,-1,-1,-1,-1,-1,-1,-1,-1,-1,-1,-1,-1,-1,-1,-1,-1,-1,-1,-1,-1,-1,-1,-1,-1,-1,-1,-1,-1,-1,-1,-1,-1,-1,-1,-1,-1,-1,-1,-1,-1,-1,-1,-1,-1,-1,-1,-1,-1,-1,-1],"split_conditions":[2.9411765E-2,7.3E1,1.7E2,8.1294715E-2,2.1972708E-2,1E0,-8.238451E-2,1E0,7E0,1.5696444E-1,-1.4471385E-1,1E0,-7.344334E-2,-1.15421705E-1,6.862536E-2,-2.6673397E-2,2.5688994E-1,-3.8322993E-2,-3.6266994E-2,1.6123398E-1,-5.3450216E-2,4.431687E0,4.72641E0,9E0,6.477903E-2,4.290952E-2,-5.573587E-3,4.2418275E-2,3.76E2,7.6400638E-3,-2.10769E-2,3.3840105E-2,-1.9350637E-2,-1.1298361E-1,9.666541E-2,1.9848116E-1,-9.77259E-2,6.910768E-2,4.7272265E-2,6.273285E-2,1.6210055E-2,4.7773734E-2,-1.6013635E-2,1.13E2,9.285121E-2,1.1123819E-2,-9.941897E-2,-2.4724958E-2,-2.7329214E-2,5.176921E-2,-1.591456E-2,1.24536686E-1,1.8513548E-1,4.990626E-3,9.354951E-2,6.7847915E-2,1.0522657E-1,3.0967604E-2,2E0,-1.585923E-2,8.6969166E-4,-9.685562E-3,6.047823E-3,-1.0248258E-2,5.1844264E-3,1.3348634E-2,4.5801435E-2,-2.9776642E-2,-4.3738238E-3,1.1756721E-2,-1.1101772E-2,8.2160635E-3,-1.0257869E-2,-4.466168E-3,-1.9032976E-2,-1.2049755E-2,-2.4493126E-2,-3.8072646E-3,-2.0717328E-2,-6.0292496E-3,8.3343005E-3,-2.0580774E-2,1.6949356E-2,-2.2167357E-2,8.893438E-3,-1.6343385E-2,6.253204E-3,-5.2935638E-2,-1.4038816E-2,-1.4395713E-2,1.2165273E-2,4.2294424E-2,3.4697116E-3,7.546016E-3,-2.406065E-2,1.4776881E-2,4.117103E-2,2.1901151E-2,-6.0317274E-3,1.2955106E-4,-3.6613803E-2,-3.3051442E-2,1.0396729E-2,-1.121751E-2,2.8429812E-2,6.4941733E-3,4.8024762E-2,3.223012E-2,-6.5511516E-3],"split_indices":[34,14,14,39,37,9,38,84,0,79,81,11,63,83,49,67,36,42,46,54,0,30,31,14,48,81,83,0,14,60,79,40,37,53,66,36,48,74,44,40,0,0,0,14,49,66,80,75,77,50,55,54,46,52,53,82,64,50,1,0,0,0,0,0,0,0,0,0,0,0,0,0,0,0,0,0,0,0,0,0,0,0,0,0,0,0,0,0,0,0,0,0,0,0,0,0,0,0,0,0,0,0,0,0,0,0,0,0,0],"split_type":[0,0,0,0,0,0,0,0,0,0,0,0,0,0,0,0,0,0,0,0,0,0,0,0,0,0,0,0,0,0,0,0,0,0,0,0,0,0,0,0,0,0,0,0,0,0,0,0,0,0,0,0,0,0,0,0,0,0,0,0,0,0,0,0,0,0,0,0,0,0,0,0,0,0,0,0,0,0,0,0,0,0,0,0,0,0,0,0,0,0,0,0,0,0,0,0,0,0,0,0,0,0,0,0,0,0,0,0,0],"sum_hessian":[1.1184869E4,7.4708325E3,3.7140369E3,5.5025884E3,1.9682441E3,2.900676E3,8.133608E2,3.8901902E3,1.6123984E3,8.515377E2,1.1167064E3,1.0384591E3,1.862217E3,2.6646225E2,5.468985E2,1.5111587E3,2.3790315E3,6.347388E2,9.776596E2,8.4087744E2,1.0660287E1,2.9215292E1,1.0874911E3,7.569519E2,2.815072E2,2.2118828E2,1.6410287E3,1.04105425E1,2.560517E2,2.9446298E2,2.5243555E2,5.71251E2,9.3990765E2,2.096516E3,2.825155E2,2.1521681E2,4.1952197E2,3.5444427E2,6.2321533E2,8.210377E2,1.9839685E1,1.909063E1,1.0124663E1,3.2789624E2,7.5959485E2,1.06781395E2,6.501705E2,2.2815167E2,5.335552E1,1.6236807E2,5.882021E1,7.463104E2,8.947183E2,1.5573808E2,1.0031362E2,1.3024768E2,1.6421529E2,6.8343056E1,1.8409248E2,3.3500824E2,2.3624275E2,2.316152E2,7.082925E2,2.1098451E2,1.8855316E3,2.5567418E2,2.684133E1,1.6762796E2,4.758886E1,4.5340122E1,3.7418185E2,2.880314E2,6.641288E1,4.389624E2,1.8425291E2,6.790552E2,1.4198257E2,1.2600043E2,2.0189581E2,6.0273114E2,1.5686374E2,7.87822E1,2.7999193E1,1.9463455E1,6.3070703E2,8.390658E1,1.4424509E2,1.8874187E1,3.448133E1,1.19261734E2,4.310633E1,1.9196285E1,3.9623924E1,7.222762E2,2.403421E1,8.5751025E2,3.7208065E1,8.2869255E1,7.286883E1,7.495913E1,2.5354496E1,1.1396149E2,1.62862E1,1.4701813E2,1.7197168E1,5.6752716E1,1.15903425E1,1.3090208E1,1.7100229E2],"tree_param":{"num_deleted":"0","num_feature":"88","num_nodes":"109","size_leaf_vector":"1"}},{"base_weights":[6.411806E-4,-4.4538103E-2,9.1573894E-2,-8.9613646E-2,7.068387E-2,-1.2431407E-1,1.2013015E-1,-1.0809058E-1,1.0124153E-1,-9.575376E-2,1.1580479E-1,-7.527292E-1,-8.35254E-2,1.5970819E-1,-2.6497928E-2,-4.3917626E-2,-1.6472411E-1,-3.4531763E-1,1.5063019E-1,-1.8616593E-1,2.197142E-1,8.229572E-2,2.5111043E-1,-5.4129597E-2,-1.0589669E-2,-3.709709E-1,5.498965E-3,-8.892047E-2,1.7774233E-1,-7.0903584E-2,2.742775E-1,-1.1926957E-1,2.6501877E-2,-1.7054145E-1,3.6828216E-2,-6.5259486E-1,1.7012522E-2,2.2968304E-1,-1.654646E-1,-1.4247184E-1,-6.567478E-2,-1.6407391E-1,4.6609238E-1,1.14178404E-1,-8.677238E-2,-2.3312224E-2,3.6167625E-1,-5.034824E-1,3.7409734E-2,3.490649E-1,-8.577283E-2,2.8319627E-1,-2.9323E-1,3.03733E-1,1.371813E-1,3.1824585E-2,-8.949218E-2,5.993654E-1,4.978693E-3,-2.1562092E-2,-4.580994E-3,6.799796E-3,-2.7614548E-3,-3.7212253E-3,-1.1008326E-2,-5.433905E-2,1.5926788E-3,1.8867755E-2,3.2723E-3,-1.7001813E-2,2.8048566E-2,-1.1936887E-2,1.1713401E-2,5.5315825E-3,-4.2775463E-2,9.9723935E-3,4.5084506E-2,6.5197498E-3,-1.5539499E-2,-9.118054E-3,2.2222776E-2,-2.5427893E-2,6.6883042E-3,9.941808E-3,3.582442E-2,-1.6783351E-4,-3.47404E-2,2.7547374E-2,-2.247492E-2,2.7503196E-2,-1.3650484E-2,-7.3288525E-3,2.4950111E-2,4.605397E-2,2.0664174E-3,1.9508611E-2,-2.15415E-2,1.7749097E-2,1.5704246E-3,-8.642554E-3,7.872258E-3,-1.0491413E-2,2.885442E-4,1.2826851E-3,4.226732E-2,-1.4883804E-2,1.9513229E-2],"categories":[],"categories_nodes":[],"categories_segments":[],"categories_sizes":[],"default_left":[0,0,0,0,0,0,0,0,0,0,0,0,0,0,0,0,0,0,0,0,0,0,0,0,0,0,0,0,0,0,0,0,0,0,0,0,0,0,0,0,0,0,0,0,0,0,0,0,0,0,0,0,0,0,0,0,0,0,0,0,0,0,0,0,0,0,0,0,0,0,0,0,0,0,0,0,0,0,0,0,0,0,0,0,0,0,0,0,0,0,0,0,0,0,0,0,0,0,0,0,0,0,0,0,0,0,0],"id":3,"left_children":[1,3,5,7,9,11,13,15,17,19,21,23,25,27,29,31,33,35,37,39,41,43,45,-1,-1,47,49,51,53,55,57,59,61,63,-1,65,-1,67,69,71,-1,73,75,77,79,81,83,85,87,89,91,93,95,97,99,-1,101,103,105,-1,-1,-1,-1,-1,-1,-1,-1,-1,-1,-1,-1,-1,-1,-1,-1,-1,-1,-1,-1,-1,-1,-1,-1,-1,-1,-1,-1,-1,-1,-1,-1,-1,-1,-1,-1,-1,-1,-1,-1,-1,-1,-1,-1,-1,-1,-1,-1],"loss_changes":[4.593543E1,3.8796608E1,2.2896948E1,1.8946136E1,1.578397E1,1.0969866E1,1.9046467E1,1.7766941E1,1.0485907E1,1.28145275E1,7.440941E0,4.309025E0,1.0492669E1,1.1605179E1,9.311974E0,1.220398E1,1.3699913E1,1.0217888E1,1.0731043E1,1.6856583E1,9.562336E0,7.165737E0,9.965466E0,0E0,0E0,5.308403E0,9.860069E0,1.33856945E1,1.2223839E1,8.005785E0,7.782086E0,9.48979E0,1.0645232E1,1.2279488E1,0E0,9.978438E0,0E0,8.244541E0,1.1060396E1,1.2283993E1,0E0,7.7056384E0,6.8325195E0,7.7231245E0,1.0749703E1,7.3164706E0,1.3253744E1,6.951626E0,6.3793135E0,8.436577E0,8.8414755E0,9.484984E0,1.0855735E1,8.117401E0,1.1488525E1,0E0,6.831979E0,5.596178E0,5.9780517E0,0E0,0E0,0E0,0E0,0E0,0E0,0E0,0E0,0E0,0E0,0E0,0E0,0E0,0E0,0E0,0E0,0E0,0E0,0E0,0E0,0E0,0E0,0E0,0E0,0E0,0E0,0E0,0E0,0E0,0E0,0E0,0E0,0E0,0E0,0E0,0E0,0E0,0E0,0E0,0E0,0E0,0E0,0E0,0E0,0E0,0E0,0E0,0E0],"parents":[2147483647,0,0,1,1,2,2,3,3,4,4,5,5,6,6,7,7,8,8,9,9,10,10,11,11,12,12,13,13,14,14,15,15,16,16,17,17,18,18,19,19,20,20,21,21,22,22,25,25,26,26,27,27,28,28,29,29,30,30,31,31,32,32,33,33,35,35,37,37,38,38,39,39,41,41,42,42,43,43,44,44,45,45,46,46,47,47,48,48,49,49,50,50,51,51,52,52,53,53,54,54,56,56,57,57,58,58],"right_children":[2,4,6,8,10,12,14,16,18,20,22,24,26,28,30,32,34,36,38,40,42,44,46,-1,-1,48,50,52,54,56,58,60,62,64,-1,66,-1,68,70,72,-1,74,76,78,80,82,84,86,88,90,92,94,96,98,100,-1,102,104,106,-1,-1,-1,-1,-1,-1,-1,-1,-1,-1,-1,-1,-1,-1,-1,-1,-1,-1,-1,-1,-1,-1,-1,-1,-1,-1,-1,-1,-1,-1,-1,-1,-1,-1,-1,-1,-1,-1,-1,-1,-1,-1,-1,-1,-1,-1,-1,-1],"split_conditions":[2.9411765E-2,8.2666144E-2,-1.1536938E-1,2.5896928E-1,1E0,-8.36531E-2,1.7564707E1,-7.083471E-3,-1.0454768E-1,1E0,8.5928254E-2,9.492736E-3,-6.027511E-2,-8.38314E-2,3.3705944E-1,1E0,1.8863685E-1,7.823256E-2,7.4583314E-2,1E0,-2.363009E-2,7.337307E-2,-5.8344893E-2,-5.4129597E-2,-1.0589669E-2,2.8223788E-2,-8.405007E-2,-3.0766921E-2,-3.259662E-1,-1.200624E-1,-3.3146087E-3,-1.2545298E-1,-8.1993446E-2,-4.675304E-2,3.6828216E-2,1.4705882E0,1.7012522E-2,1.40166E-2,8.640028E-2,4.6323955E-2,-6.567478E-2,8.4078975E-2,3.3285376E-2,1.3648531E-1,8.057602E-2,-6.70658E-2,3.2402113E-2,-1.4674897E-1,-1.5542181E-1,3.523145E-2,8.750825E-2,-2.6685456E-2,-9.080905E-2,6.2302258E-2,-1.0563499E-1,3.1824585E-2,-7.119581E-3,-4.3859594E-2,-6.756772E-3,-2.1562092E-2,-4.580994E-3,6.799796E-3,-2.7614548E-3,-3.7212253E-3,-1.1008326E-2,-5.433905E-2,1.5926788E-3,1.8867755E-2,3.2723E-3,-1.7001813E-2,2.8048566E-2,-1.1936887E-2,1.1713401E-2,5.5315825E-3,-4.2775463E-2,9.9723935E-3,4.5084506E-2,6.5197498E-3,-1.5539499E-2,-9.118054E-3,2.2222776E-2,-2.5427893E-2,6.6883042E-3,9.941808E-3,3.582442E-2,-1.6783351E-4,-3.47404E-2,2.7547374E-2,-2.247492E-2,2.7503196E-2,-1.3650484E-2,-7.3288525E-3,2.4950111E-2,4.605397E-2,2.0664174E-3,1.9508611E-2,-2.15415E-2,1.7749097E-2,1.5704246E-3,-8.642554E-3,7.872258E-3,-1.0491413E-2,2.885442E-4,1.2826851E-3,4.226732E-2,-1.4883804E-2,1.9513229E-2],"split_indices":[34,37,41,36,8,78,17,52,76,6,45,53,42,69,37,7,75,38,72,24,55,72,55,0,0,53,55,44,37,53,66,53,52,39,0,32,0,77,66,71,0,47,83,66,59,49,60,38,37,66,64,77,48,69,60,0,47,74,59,0,0,0,0,0,0,0,0,0,0,0,0,0,0,0,0,0,0,0,0,0,0,0,0,0,0,0,0,0,0,0,0,0,0,0,0,0,0,0,0,0,0,0,0,0,0,0,0],"split_type":[0,0,0,0,0,0,0,0,0,0,0,0,0,0,0,0,0,0,0,0,0,0,0,0,0,0,0,0,0,0,0,0,0,0,0,0,0,0,0,0,0,0,0,0,0,0,0,0,0,0,0,0,0,0,0,0,0,0,0,0,0,0,0,0,0,0,0,0,0,0,0,0,0,0,0,0,0,0,0,0,0,0,0,0,0,0,0,0,0,0,0,0,0,0,0,0,0,0,0,0,0,0,0,0,0,0,0],"sum_hessian":[1.117806E4,7.467363E3,3.7106965E3,5.3683296E3,2.0990334E3,4.326871E2,3.2780095E3,4.895361E3,4.7296863E2,4.4696707E2,1.6520663E3,2.5159443E1,4.0752768E2,2.5817368E3,6.9627264E2,2.296583E3,2.5987778E3,4.630197E1,4.2666666E2,3.479675E2,9.899957E1,1.3260189E3,3.2604745E2,1.4892063E1,1.026738E1,9.588534E1,3.1164233E2,1.7395953E2,2.4077773E3,6.076567E2,8.8616005E1,1.1097878E3,1.1867952E3,2.5830276E3,1.5750342E1,3.2105835E1,1.4196137E1,3.417799E2,8.488676E1,3.3615363E2,1.1813868E1,3.8678104E1,6.0321465E1,1.1164047E3,2.0961424E2,9.360529E1,2.3244218E2,7.240375E1,2.3481596E1,6.5050385E1,2.4659193E2,6.1348183E1,1.1261134E2,5.8419543E2,1.8235818E3,1.4569997E1,5.930867E2,3.9425713E1,4.9190296E1,8.886853E1,1.0209193E3,5.074841E2,6.7931104E2,8.8105664E2,1.7019708E3,1.9374023E1,1.273181E1,1.7896175E2,1.6281815E2,6.897965E1,1.5907105E1,2.6824298E2,6.791065E1,2.8178303E1,1.0499802E1,3.846385E1,2.1857615E1,1.0762634E3,4.014123E1,1.7836446E2,3.124979E1,2.2499365E1,7.110593E1,1.6058456E2,7.185761E1,2.04604E1,5.1943344E1,1.1464229E1,1.2017368E1,4.9373714E1,1.5676668E1,2.2420021E2,2.2391724E1,1.5980598E1,4.5367588E1,1.8444223E1,9.416712E1,4.9110358E2,9.309188E1,1.1111304E2,1.7124688E3,2.6198938E2,3.310973E2,1.2284616E1,2.7141096E1,2.7531351E1,2.1658943E1],"tree_param":{"num_deleted":"0","num_feature":"88","num_nodes":"107","size_leaf_vector":"1"}},{"base_weights":[-4.2804535E-3,-5.3977154E-2,9.6317634E-2,-1.7049149E-2,-1.6669393E-1,1.3743447E-1,-5.002472E-2,3.9973397E-2,-1.586747E-1,-2.962882E-1,-1.2189003E-1,6.3354545E-3,2.1601641E-1,-5.540648E-1,-2.4439601E-2,4.9843276E-3,1.6383931E-1,-2.8343534E-1,-7.172844E-2,-1.854149E-1,-5.4887915E-1,-2.0330054E-1,-3.6701586E-2,-4.7595184E-2,1.7567543E-2,6.35664E-2,3.037004E-1,9.654391E-3,-8.4427685E-1,-4.5154327E-1,2.1365338E-3,2.5776E-1,-1.4765913E-2,2.9807645E-1,2.0051617E-2,1.6297157E-1,-3.362635E-1,6.498448E-1,-8.9770176E-2,2.4083869E-1,-2.4681544E-1,-4.5954415E-1,-5.650697E-2,-2.684786E-1,3.1447414E-2,-8.6524315E-2,3.184156E-1,-1.15926705E-1,1.0144759E-1,-4.1035274E-1,1.07483E-1,1.943425E-1,4.0307432E-1,-1.2459226E-2,-5.8728736E-2,1.5169837E-2,-6.78612E-1,4.3050537E-1,-3.253827E-2,3.3052564E-2,7.561558E-3,-3.4868203E-3,3.4056313E-3,2.8193025E-2,1.1685588E-2,-7.325952E-3,8.4489295E-3,1.6492983E-2,-3.742015E-2,-2.3583455E-2,-1.1035862E-2,4.6580187E-3,5.5211425E-2,2.612864E-2,-5.4193633E-3,-2.2543462E-2,2.4697918E-2,1.7061607E-4,-1.8486382E-2,-2.637116E-2,1.3214851E-2,-1.6230585E-2,-7.1659085E-4,-2.8525656E-3,5.1952828E-2,2.6485005E-2,-5.601307E-3,4.4837393E-2,6.086594E-3,-4.552943E-3,-4.911637E-2,1.3344191E-2,1.076238E-3,-3.4151178E-2,9.732299E-3,3.3823308E-3,2.6373914E-2,-2.0807078E-2,1.1184501E-2,3.3695854E-2,1.7195549E-2,-5.7858974E-2,-1.3356678E-2,7.4662454E-3,5.089047E-2,-3.6276493E-3,1.8221192E-2],"categories":[],"categories_nodes":[],"categories_segments":[],"categories_sizes":[],"default_left":[0,0,0,0,0,0,0,0,0,0,0,0,0,0,0,0,0,0,0,0,0,0,0,0,0,0,0,0,0,0,0,0,0,0,0,0,0,0,0,0,0,0,0,0,0,0,0,0,0,0,0,0,0,0,0,0,0,0,0,0,0,0,0,0,0,0,0,0,0,0,0,0,0,0,0,0,0,0,0,0,0,0,0,0,0,0,0,0,0,0,0,0,0,0,0,0,0,0,0,0,0,0,0,0,0,0,0],"id":4,"left_children":[1,3,5,7,9,11,13,15,17,19,21,23,25,27,29,31,33,35,37,39,41,43,45,-1,47,49,51,-1,53,55,57,59,61,63,65,67,69,71,73,75,77,79,-1,81,83,85,87,89,91,93,95,97,99,-1,-1,-1,101,103,105,-1,-1,-1,-1,-1,-1,-1,-1,-1,-1,-1,-1,-1,-1,-1,-1,-1,-1,-1,-1,-1,-1,-1,-1,-1,-1,-1,-1,-1,-1,-1,-1,-1,-1,-1,-1,-1,-1,-1,-1,-1,-1,-1,-1,-1,-1,-1,-1],"loss_changes":[5.6043625E1,3.1215635E1,2.231736E1,4.5682316E1,1.0670258E1,2.9792763E1,1.0414884E1,1.7454996E1,1.7558472E1,1.3107574E1,9.524084E0,1.1613811E1,2.4126343E1,8.694694E0,8.843882E0,1.5730423E1,1.7089094E1,1.578014E1,1.2483635E1,8.73338E0,6.793701E0,1.0799278E1,1.1949041E1,0E0,1.204399E1,1.3797166E1,1.233548E1,0E0,5.148245E0,8.065412E0,1.0903918E1,9.629688E0,1.3298477E1,7.6315994E0,1.0690359E1,1.0997302E1,9.153336E0,5.689584E0,1.0689854E1,7.5853176E0,8.968464E0,6.3840694E0,0E0,7.825268E0,1.3844395E1,9.337743E0,9.233599E0,8.738152E0,8.704906E0,9.449301E0,1.0061771E1,9.907351E0,9.279907E0,0E0,0E0,0E0,6.5370693E0,8.8117895E0,1.074273E1,0E0,0E0,0E0,0E0,0E0,0E0,0E0,0E0,0E0,0E0,0E0,0E0,0E0,0E0,0E0,0E0,0E0,0E0,0E0,0E0,0E0,0E0,0E0,0E0,0E0,0E0,0E0,0E0,0E0,0E0,0E0,0E0,0E0,0E0,0E0,0E0,0E0,0E0,0E0,0E0,0E0,0E0,0E0,0E0,0E0,0E0,0E0,0E0],"parents":[2147483647,0,0,1,1,2,2,3,3,4,4,5,5,6,6,7,7,8,8,9,9,10,10,11,11,12,12,13,13,14,14,15,15,16,16,17,17,18,18,19,19,20,20,21,21,22,22,24,24,25,25,26,26,28,28,29,29,30,30,31,31,32,32,33,33,34,34,35,35,36,36,37,37,38,38,39,39,40,40,41,41,43,43,44,44,45,45,46,46,47,47,48,48,49,49,50,50,51,51,52,52,56,56,57,57,58,58],"right_children":[2,4,6,8,10,12,14,16,18,20,22,24,26,28,30,32,34,36,38,40,42,44,46,-1,48,50,52,-1,54,56,58,60,62,64,66,68,70,72,74,76,78,80,-1,82,84,86,88,90,92,94,96,98,100,-1,-1,-1,102,104,106,-1,-1,-1,-1,-1,-1,-1,-1,-1,-1,-1,-1,-1,-1,-1,-1,-1,-1,-1,-1,-1,-1,-1,-1,-1,-1,-1,-1,-1,-1,-1,-1,-1,-1,-1,-1,-1,-1,-1,-1,-1,-1,-1,-1,-1,-1,-1,-1],"split_conditions":[2.9411765E-2,7.9E1,1.7E2,8.283126E-2,1E0,-3.4332182E-2,-8.64557E-2,2.2355379E-1,5.833333E-1,5.1608093E-2,-9.894699E-3,-1.5161331E-1,-1.834912E-2,-3.339062E-2,-8.545095E-2,-2.5651497E-1,3.554142E-3,-9.77259E-2,-3.5674536E-1,-1.3125093E-1,6.467231E-2,5.2257466E0,2.612539E-1,-4.7595184E-2,-2.0725673E-2,-8.190638E-2,1E0,9.654391E-3,2.9556956E-3,-8.273945E-2,-7.87662E-2,-3.7437584E-2,1.7652452E-2,-7.1015075E-2,9.411765E-1,8.961673E-2,-1.9032035E-2,-5.8318906E-2,-1.3800819E-1,-1.9530727E-1,-5.668132E-2,4.0037252E-2,-5.650697E-2,6.1411727E-2,1.4423908E-1,-1.15421705E-1,-6.697919E-2,2.1210232E1,-8.421548E-2,3.9099716E-2,2.4676207E-1,-2.8E0,2.9E1,-1.2459226E-2,-5.8728736E-2,1.5169837E-2,-2.1925261E-2,1.4623213E-1,8.140291E-2,3.3052564E-2,7.561558E-3,-3.4868203E-3,3.4056313E-3,2.8193025E-2,1.1685588E-2,-7.325952E-3,8.4489295E-3,1.6492983E-2,-3.742015E-2,-2.3583455E-2,-1.1035862E-2,4.6580187E-3,5.5211425E-2,2.612864E-2,-5.4193633E-3,-2.2543462E-2,2.4697918E-2,1.7061607E-4,-1.8486382E-2,-2.637116E-2,1.3214851E-2,-1.6230585E-2,-7.1659085E-4,-2.8525656E-3,5.1952828E-2,2.6485005E-2,-5.601307E-3,4.4837393E-2,6.086594E-3,-4.552943E-3,-4.911637E-2,1.3344191E-2,1.076238E-3,-3.4151178E-2,9.732299E-3,3.3823308E-3,2.6373914E-2,-2.0807078E-2,1.1184501E-2,3.3695854E-2,1.7195549E-2,-5.7858974E-2,-1.3356678E-2,7.4662454E-3,5.089047E-2,-3.6276493E-3,1.8221192E-2],"split_indices":[34,14,14,39,10,41,82,36,32,61,51,57,81,55,69,36,68,48,36,44,51,33,36,0,83,72,7,0,79,57,79,77,67,60,32,77,74,44,81,44,51,51,0,78,49,83,55,18,44,51,41,18,14,0,0,0,81,44,79,0,0,0,0,0,0,0,0,0,0,0,0,0,0,0,0,0,0,0,0,0,0,0,0,0,0,0,0,0,0,0,0,0,0,0,0,0,0,0,0,0,0,0,0,0,0,0,0],"split_type":[0,0,0,0,0,0,0,0,0,0,0,0,0,0,0,0,0,0,0,0,0,0,0,0,0,0,0,0,0,0,0,0,0,0,0,0,0,0,0,0,0,0,0,0,0,0,0,0,0,0,0,0,0,0,0,0,0,0,0,0,0,0,0,0,0,0,0,0,0,0,0,0,0,0,0,0,0,0,0,0,0,0,0,0,0,0,0,0,0,0,0,0,0,0,0,0,0,0,0,0,0,0,0,0,0,0,0],"sum_hessian":[1.1208893E4,7.5035186E3,3.7053735E3,5.653403E3,1.8501161E3,2.8932273E3,8.121463E2,4.0305845E3,1.6228182E3,4.7329007E2,1.376826E3,1.0851742E3,1.8080531E3,3.8046494E1,7.740998E2,3.1442568E3,8.863275E2,6.650774E2,9.5774084E2,3.3039505E2,1.4289502E2,7.027149E2,6.7411115E2,1.1499155E1,1.073675E3,6.6124976E2,1.1468033E3,1.0641074E1,2.740542E1,4.4629745E1,7.294701E2,2.273612E2,2.9168958E3,4.5747244E2,4.2885504E2,6.995636E1,5.9512103E2,2.237313E1,9.353677E2,4.102703E1,2.8936804E2,1.2556009E2,1.7334929E1,5.502262E2,1.5248871E2,5.9208057E2,8.2030594E1,4.1370053E2,6.599745E2,5.51785E1,6.060712E2,5.4786127E2,5.989421E2,1.0516035E1,1.6889385E1,1.0140126E1,3.448962E1,5.3987133E1,6.75483E2,4.6224144E1,1.8113707E2,1.7545367E3,1.162359E3,8.737145E1,3.7010098E2,2.021267E2,2.2672835E2,5.9760914E1,1.0195444E1,2.721952E2,3.2292584E2,1.0695154E1,1.1677978E1,2.6641726E1,9.0872595E2,1.067602E1,3.035101E1,9.537E1,1.9399803E2,1.1516944E2,1.0390643E1,4.5013474E2,1.0009146E2,1.409529E2,1.1535816E1,2.258741E1,5.694931E2,1.9785425E1,6.224517E1,4.033441E2,1.0356456E1,2.1380936E2,4.461651E2,3.80609E1,1.7117598E1,5.548437E2,5.1227528E1,2.436826E1,5.23493E2,1.05212234E2,4.9372986E2,1.4994771E1,1.9494848E1,3.7471584E1,1.651555E1,6.1459906E2,6.08839E1],"tree_param":{"num_deleted":"0","num_feature":"88","num_nodes":"107","size_leaf_vector":"1"}},{"base_weights":[1.0739228E-3,2.2628018E-1,-1.4737196E-2,-2.6744482E-1,2.690028E-1,-7.684819E-2,3.1997208E-2,2.220137E-2,-4.2821008E-1,3.1326348E-1,3.7118226E-2,-3.3927374E-2,-1.8108769E-1,9.0371855E-2,-6.0584564E-2,-6.4117247E-1,-1.5441779E-3,3.7856665E-1,1.21271685E-1,-2.2402436E-1,2.8411773E-1,-2.3489013E-1,-4.078435E-3,-1.5166344E-1,-5.149409E-1,6.0386978E-2,3.847097E-1,-7.0410684E-2,3.660247E-1,-4.5880146E-2,-1.2702768E-2,3.1506547E-1,7.8445417E-1,4.5693374E-1,-3.8962472E-2,-4.759622E-1,1.5481892E-2,4.2743888E-2,4.761837E-2,-7.2172517E-1,-1.7082922E-1,5.1122144E-2,-9.151013E-2,-5.2498E-1,-1.2194216E-1,8.932969E-3,-6.6589224E-1,2.0591144E-2,1.769324E-1,4.1675347E-1,-1.7124923E-2,-5.630916E-1,-6.005975E-2,5.272465E-2,1.7329183E-1,-9.606219E-3,1.8980091E-2,1.29504725E-2,5.228598E-2,2.551239E-3,3.8037147E-2,-4.0207822E-2,2.8049366E-3,-4.921152E-2,-8.474893E-3,1.9086061E-2,-1.3884516E-2,-4.08975E-3,-5.0732147E-2,-3.0651955E-2,-5.349768E-3,3.8915058E-4,1.6604941E-2,-7.7613513E-3,7.957913E-3,-3.775349E-2,1.1691268E-3,-3.8064767E-3,-1.6202329E-2,-1.6857527E-2,-5.078537E-2,-9.333556E-4,9.169927E-3,-9.772843E-3,1.1329484E-2,3.4678567E-2,1.6630974E-2,7.581939E-3,-4.4363867E-2,-6.173187E-3,-5.8194328E-5,-1.1737779E-2,2.2345515E-2],"categories":[],"categories_nodes":[],"categories_segments":[],"categories_sizes":[],"default_left":[0,0,0,0,0,0,0,0,0,0,0,0,0,0,0,0,0,0,0,0,0,0,0,0,0,0,0,0,0,0,0,0,0,0,0,0,0,0,0,0,0,0,0,0,0,0,0,0,0,0,0,0,0,0,0,0,0,0,0,0,0,0,0,0,0,0,0,0,0,0,0,0,0,0,0,0,0,0,0,0,0,0,0,0,0,0,0,0,0,0,0,0,0],"id":5,"left_children":[1,3,5,7,9,11,13,-1,15,17,19,21,23,25,27,29,-1,31,33,35,37,39,41,43,45,47,49,51,53,-1,-1,55,57,59,61,63,-1,-1,65,67,69,71,73,75,77,-1,79,81,83,85,-1,87,89,-1,91,-1,-1,-1,-1,-1,-1,-1,-1,-1,-1,-1,-1,-1,-1,-1,-1,-1,-1,-1,-1,-1,-1,-1,-1,-1,-1,-1,-1,-1,-1,-1,-1,-1,-1,-1,-1,-1,-1],"loss_changes":[3.990204E1,1.5578964E1,3.038391E1,6.921301E0,6.904667E0,2.0081018E1,3.22809E1,0E0,4.0284786E0,7.0285378E0,7.1683555E0,1.9083782E1,1.2723503E1,3.2264107E1,9.675764E0,3.0152884E0,0E0,1.0549511E1,7.916635E0,7.4051533E0,7.589622E0,1.2621262E1,1.3401864E1,1.3247427E1,1.1204084E1,1.5403513E1,8.031048E0,1.1419926E1,6.5838323E0,0E0,0E0,1.21304245E1,7.3361664E0,5.735529E0,7.364901E0,5.4978466E0,0E0,0E0,4.6402054E0,8.685001E0,1.0169829E1,2.0677069E1,1.7194628E1,1.1238235E1,1.0288664E1,0E0,9.515579E0,1.587916E1,1.5689478E1,7.2244186E0,0E0,1.0900991E1,8.251368E0,0E0,4.801415E0,0E0,0E0,0E0,0E0,0E0,0E0,0E0,0E0,0E0,0E0,0E0,0E0,0E0,0E0,0E0,0E0,0E0,0E0,0E0,0E0,0E0,0E0,0E0,0E0,0E0,0E0,0E0,0E0,0E0,0E0,0E0,0E0,0E0,0E0,0E0,0E0,0E0,0E0],"parents":[2147483647,0,0,1,1,2,2,3,3,4,4,5,5,6,6,8,8,9,9,10,10,11,11,12,12,13,13,14,14,15,15,17,17,18,18,19,19,20,20,21,21,22,22,23,23,24,24,25,25,26,26,27,27,28,28,31,31,32,32,33,33,34,34,35,35,38,38,39,39,40,40,41,41,42,42,43,43,44,44,46,46,47,47,48,48,49,49,51,51,52,52,54,54],"right_children":[2,4,6,8,10,12,14,-1,16,18,20,22,24,26,28,30,-1,32,34,36,38,40,42,44,46,48,50,52,54,-1,-1,56,58,60,62,64,-1,-1,66,68,70,72,74,76,78,-1,80,82,84,86,-1,88,90,-1,92,-1,-1,-1,-1,-1,-1,-1,-1,-1,-1,-1,-1,-1,-1,-1,-1,-1,-1,-1,-1,-1,-1,-1,-1,-1,-1,-1,-1,-1,-1,-1,-1,-1,-1,-1,-1,-1,-1],"split_conditions":[-3.259662E-1,-8.545095E-2,1E0,-4.709098E-2,6.222246E-2,1E0,7.9E1,2.220137E-2,4.676788E-3,3.56297E-2,-7.5536966E-4,3.2903216E0,1.9038108E-1,2.686948E-1,2.5308877E-1,1E0,-1.5441779E-3,1.1272775E-1,-2.2049967E-2,-1.3969558E-2,-2.713322E-2,-5.5747043E-2,2.8E1,1E0,-8.27069E-2,5.137995E-2,8.955771E-2,1E0,-3.884078E-2,-4.5880146E-2,-1.2702768E-2,-7.251892E-2,3.5654483E0,-1.2780277E-2,7.613684E0,-5.493538E-3,1.5481892E-2,4.2743888E-2,1.8052962E-2,-4.4386E-2,-8.022561E-2,1.0283334E1,7E-1,1.6911282E-1,1.1E2,8.932969E-3,1E0,3.448276E-2,-1.1773965E-1,-4.4823226E-2,-1.7124923E-2,-2.289351E-3,-8.042652E-3,5.272465E-2,6.111111E-1,-9.606219E-3,1.8980091E-2,1.29504725E-2,5.228598E-2,2.551239E-3,3.8037147E-2,-4.0207822E-2,2.8049366E-3,-4.921152E-2,-8.474893E-3,1.9086061E-2,-1.3884516E-2,-4.08975E-3,-5.0732147E-2,-3.0651955E-2,-5.349768E-3,3.8915058E-4,1.6604941E-2,-7.7613513E-3,7.957913E-3,-3.775349E-2,1.1691268E-3,-3.8064767E-3,-1.6202329E-2,-1.6857527E-2,-5.078537E-2,-9.333556E-4,9.169927E-3,-9.772843E-3,1.1329484E-2,3.4678567E-2,1.6630974E-2,7.581939E-3,-4.4363867E-2,-6.173187E-3,-5.8194328E-5,-1.1737779E-2,2.2345515E-2],"split_indices":[37,69,10,60,54,11,14,0,53,52,53,30,47,37,45,7,0,51,83,67,73,83,14,8,70,49,46,9,53,0,0,66,30,76,18,75,0,0,51,52,61,18,34,39,14,0,2,34,53,40,0,52,51,0,34,0,0,0,0,0,0,0,0,0,0,0,0,0,0,0,0,0,0,0,0,0,0,0,0,0,0,0,0,0,0,0,0,0,0,0,0,0,0],"split_type":[0,0,0,0,0,0,0,0,0,0,0,0,0,0,0,0,0,0,0,0,0,0,0,0,0,0,0,0,0,0,0,0,0,0,0,0,0,0,0,0,0,0,0,0,0,0,0,0,0,0,0,0,0,0,0,0,0,0,0,0,0,0,0,0,0,0,0,0,0,0,0,0,0,0,0,0,0,0,0,0,0,0,0,0,0,0,0,0,0,0,0,0,0],"sum_hessian":[1.1198158E4,7.341585E2,1.0464E4,5.7862965E1,6.7629553E2,4.4935176E3,5.9704824E3,1.0225531E1,4.7637432E1,5.6724176E2,1.0905374E2,3.1845557E3,1.3089619E3,3.6623818E3,2.3081006E3,3.0450771E1,1.718666E1,4.2215823E2,1.4508353E2,5.285765E1,5.6196095E1,4.1051028E2,2.7740454E3,1.2045521E3,1.0440975E2,3.3251826E3,3.3719913E2,2.2571802E3,5.0920437E1,1.6814968E1,1.3635804E1,3.6679562E2,5.5362617E1,4.6482784E1,9.8600746E1,3.6107216E1,1.6750435E1,1.5573635E1,4.062246E1,4.6360832E1,3.6414944E2,1.7000066E3,1.0740388E3,8.735053E1,1.1172015E3,1.8510515E1,8.589924E1,2.480292E3,8.448908E2,3.2350845E2,1.3690689E1,4.5148605E1,2.2120315E3,1.0045701E1,4.0874737E1,4.100573E1,3.257899E2,1.9174297E1,3.618832E1,2.053876E1,2.5944027E1,1.0187687E1,8.8413055E1,1.2627221E1,2.3479996E1,2.0106453E1,2.0516006E1,1.5066362E1,3.129447E1,4.4651997E1,3.1949747E2,1.4740292E3,2.2597743E2,8.569836E2,2.1705524E2,6.1394974E1,2.595556E1,9.1227936E2,2.0492221E2,4.5443237E1,4.0456E1,1.9986277E3,4.816642E2,9.8826035E1,7.4606476E2,7.344088E1,2.5006757E2,1.4158104E1,3.09905E1,1.063901E3,1.1481305E3,1.6317299E1,2.4557438E1],"tree_param":{"num_deleted":"0","num_feature":"88","num_nodes":"93","size_leaf_vector":"1"}},{"base_weights":[2.8709255E-3,2.6590782E-1,-1.5309438E-2,2.1216539E-1,6.2021714E-1,1.8728798E-2,-9.6336775E-2,4.141537E-3,3.034032E-1,7.808646E-1,-7.1766335E-3,-2.2338152E-1,3.7830237E-2,-1.1807081E-1,6.95985E-2,1.6076867E-1,-5.8237886E-1,1.6549446E-1,4.701095E-1,3.4438264E-1,9.283831E-1,-3.0490655E-1,1.08997755E-1,1.9854136E-2,2.4050765E-1,-2.1337365E-1,-5.9099805E-2,4.4412285E-1,-4.6357606E-2,2.7376795E-1,-5.187034E-1,1.9212103E-3,-8.017379E-1,-2.7301544E-1,2.7023092E-1,6.44563E-1,2.4723354E-1,-6.0374397E-3,3.888927E-2,1.0886091E0,8.550817E-3,-6.568694E-1,-2.3288937E-1,-1.847234E-1,5.4570293E-1,-7.296675E-2,5.266398E-2,-7.251637E-2,3.2566798E-1,2.5649762E-1,-2.407021E-1,-1.3341855E-1,2.3958331E-2,7.753662E-1,-3.9466728E-2,4.375678E-2,-3.5571566E-1,1.9055469E-2,-1.4923192E-2,-1.2517439E-3,-4.7936168E-2,-5.3946175E-2,-1.3007213E-2,-3.754629E-2,5.7251966E-3,3.4766965E-2,8.984867E-3,2.6751397E-2,5.781147E-2,-1.6957557E-2,1.8115912E-2,6.244057E-2,2.8673872E-2,1.8263192E-4,-4.232283E-2,-4.5465004E-2,-9.574585E-3,-2.069701E-2,1.5754784E-2,3.9213948E-2,-1.0451409E-2,7.1570105E-3,-5.750298E-3,-4.4827905E-4,6.038848E-3,4.9945E-3,-2.4191035E-2,-1.7488861E-2,1.8016065E-2,-1.039897E-2,4.344552E-2,-3.3456504E-3,-1.5896041E-2,-2.3052959E-2,-5.2821776E-3,2.77844E-3,-2.3050737E-2,5.88956E-2,1.6160963E-2,1.15008345E-2,-2.8192535E-2,1.7400196E-2,-2.5778678E-3,2.1334388E-3,-3.4640875E-2],"categories":[],"categories_nodes":[],"categories_segments":[],"categories_sizes":[],"default_left":[0,0,0,0,0,0,0,0,0,0,0,0,0,0,0,0,0,0,0,0,0,0,0,0,0,0,0,0,0,0,0,0,0,0,0,0,0,0,0,0,0,0,0,0,0,0,0,0,0,0,0,0,0,0,0,0,0,0,0,0,0,0,0,0,0,0,0,0,0,0,0,0,0,0,0,0,0,0,0,0,0,0,0,0,0,0,0,0,0,0,0,0,0,0,0,0,0,0,0,0,0,0,0,0,0],"id":6,"left_children":[1,3,5,7,9,11,13,15,17,19,-1,21,23,25,27,29,31,33,35,37,39,41,43,45,47,49,51,53,55,57,59,-1,61,63,65,67,69,-1,-1,71,-1,73,75,77,79,81,83,85,87,89,91,93,95,97,99,101,103,-1,-1,-1,-1,-1,-1,-1,-1,-1,-1,-1,-1,-1,-1,-1,-1,-1,-1,-1,-1,-1,-1,-1,-1,-1,-1,-1,-1,-1,-1,-1,-1,-1,-1,-1,-1,-1,-1,-1,-1,-1,-1,-1,-1,-1,-1,-1,-1],"loss_changes":[5.3455948E1,1.3546082E1,2.8832478E1,1.191123E1,1.1760105E1,3.402311E1,1.1165895E1,1.779945E1,9.906982E0,4.5928154E0,0E0,1.4628534E1,2.4824764E1,1.53324585E1,1.5617999E1,1.1895246E1,5.6632576E0,1.1145181E1,7.411255E0,4.5002794E0,6.6944695E0,1.0719776E1,1.3790401E1,1.909042E1,1.485017E1,1.3472557E1,1.045679E1,1.3718428E1,7.6920905E0,8.248673E0,4.6765747E0,0E0,4.1359673E0,8.815165E0,7.303049E0,5.3566475E0,6.0888367E0,0E0,0E0,3.0101128E0,0E0,9.187899E0,9.818512E0,7.5012984E0,7.9988775E0,1.4881766E1,1.9457905E1,8.547698E0,1.0353939E1,1.6658018E1,1.3196503E1,8.026786E0,1.2235508E1,8.680944E0,5.1625586E0,6.2249923E0,8.45119E0,0E0,0E0,0E0,0E0,0E0,0E0,0E0,0E0,0E0,0E0,0E0,0E0,0E0,0E0,0E0,0E0,0E0,0E0,0E0,0E0,0E0,0E0,0E0,0E0,0E0,0E0,0E0,0E0,0E0,0E0,0E0,0E0,0E0,0E0,0E0,0E0,0E0,0E0,0E0,0E0,0E0,0E0,0E0,0E0,0E0,0E0,0E0,0E0],"parents":[2147483647,0,0,1,1,2,2,3,3,4,4,5,5,6,6,7,7,8,8,9,9,11,11,12,12,13,13,14,14,15,15,16,16,17,17,18,18,19,19,20,20,21,21,22,22,23,23,24,24,25,25,26,26,27,27,28,28,29,29,30,30,32,32,33,33,34,34,35,35,36,36,39,39,41,41,42,42,43,43,44,44,45,45,46,46,47,47,48,48,49,49,50,50,51,51,52,52,53,53,54,54,55,55,56,56],"right_children":[2,4,6,8,10,12,14,16,18,20,-1,22,24,26,28,30,32,34,36,38,40,42,44,46,48,50,52,54,56,58,60,-1,62,64,66,68,70,-1,-1,72,-1,74,76,78,80,82,84,86,88,90,92,94,96,98,100,102,104,-1,-1,-1,-1,-1,-1,-1,-1,-1,-1,-1,-1,-1,-1,-1,-1,-1,-1,-1,-1,-1,-1,-1,-1,-1,-1,-1,-1,-1,-1,-1,-1,-1,-1,-1,-1,-1,-1,-1,-1,-1,-1,-1,-1,-1,-1,-1,-1],"split_conditions":[-3.259662E-1,5.6856785E-2,7.9E1,-3.3599287E-2,5.6455996E-2,3.2903216E0,4.829966E0,4.176305E-2,1.3256602E-2,-5.9384152E-2,-7.1766335E-3,6.4603016E-2,2.77663E-1,4.80197E0,1.65E2,6.5496646E-2,-2.8056696E-2,-5.050249E-1,6.1E1,-4.0208716E-3,1.0180213E-1,-4.6402548E-2,8.526441E-3,-4.362034E-2,-4.920649E-2,-2.0377386E-1,6.0172956E-3,1E0,3.0913541E-2,8.976569E-2,5.2456096E-2,1.9212103E-3,-1.3969558E-2,2.4023691E-2,-6.283594E-2,3.9643858E-2,-6.0534857E-2,-6.0374397E-3,3.888927E-2,4.6814904E-2,8.550817E-3,-7.438613E-2,-1.3098818E-1,4.7564186E-2,5.4336175E-2,-9.991591E-2,1E0,2.2332378E-2,3.6424897E0,3.8293924E-2,-3.248015E-2,-1.2465359E-1,1.364E3,-4.9060345E-2,5.1608093E-2,-9.080136E-2,2.54105E-3,1.9055469E-2,-1.4923192E-2,-1.2517439E-3,-4.7936168E-2,-5.3946175E-2,-1.3007213E-2,-3.754629E-2,5.7251966E-3,3.4766965E-2,8.984867E-3,2.6751397E-2,5.781147E-2,-1.6957557E-2,1.8115912E-2,6.244057E-2,2.8673872E-2,1.8263192E-4,-4.232283E-2,-4.5465004E-2,-9.574585E-3,-2.069701E-2,1.5754784E-2,3.9213948E-2,-1.0451409E-2,7.1570105E-3,-5.750298E-3,-4.4827905E-4,6.038848E-3,4.9945E-3,-2.4191035E-2,-1.7488861E-2,1.8016065E-2,-1.039897E-2,4.344552E-2,-3.3456504E-3,-1.5896041E-2,-2.3052959E-2,-5.2821776E-3,2.77844E-3,-2.3050737E-2,5.88956E-2,1.6160963E-2,1.15008345E-2,-2.8192535E-2,1.7400196E-2,-2.5778678E-3,2.1334388E-3,-3.4640875E-2],"split_indices":[37,65,14,53,69,30,30,79,74,76,0,61,37,31,14,54,83,37,14,69,59,83,55,67,75,43,51,3,56,59,62,0,67,53,50,81,64,0,0,74,0,59,49,80,80,46,7,52,30,62,62,58,14,51,61,51,54,0,0,0,0,0,0,0,0,0,0,0,0,0,0,0,0,0,0,0,0,0,0,0,0,0,0,0,0,0,0,0,0,0,0,0,0,0,0,0,0,0,0,0,0,0,0,0,0],"split_type":[0,0,0,0,0,0,0,0,0,0,0,0,0,0,0,0,0,0,0,0,0,0,0,0,0,0,0,0,0,0,0,0,0,0,0,0,0,0,0,0,0,0,0,0,0,0,0,0,0,0,0,0,0,0,0,0,0,0,0,0,0,0,0,0,0,0,0,0,0,0,0,0,0,0,0,0,0,0,0,0,0,0,0,0,0,0,0,0,0,0,0,0,0,0,0,0,0,0,0,0,0,0,0,0,0],"sum_hessian":[1.1171234E4,7.216818E2,1.0449553E4,6.2826605E2,9.3415764E1,7.3580806E3,3.0914727E3,1.9219633E2,4.360697E2,7.7271065E1,1.61447E1,5.3690405E2,6.8211763E3,2.734236E3,3.572365E2,1.5239615E2,3.9800186E1,2.4006618E2,1.9600352E2,2.05322E1,5.6738865E1,4.3146024E2,1.054438E2,6.2669336E3,5.5424286E2,1.0435098E3,1.6907263E3,8.399027E1,2.7324622E2,1.3130397E2,2.1092186E1,1.0487816E1,2.9312368E1,4.5790287E1,1.942759E2,1.08632225E2,8.73713E1,1.0140255E1,1.0391945E1,4.63614E1,1.0377463E1,7.1672485E1,3.5978775E2,6.3250507E1,4.2193295E1,1.6355629E3,4.6313706E3,1.1831743E2,4.3592545E2,5.66942E1,9.868156E2,8.926229E2,7.981034E2,4.9611454E1,3.4378822E1,2.1202094E2,6.122528E1,1.1099235E2,2.031162E1,1.0545312E1,1.0546873E1,1.8610712E1,1.0701658E1,2.0199465E1,2.5590824E1,3.2743057E1,1.6153284E2,9.132327E1,1.7308949E1,1.3872355E1,7.349895E1,3.4129112E1,1.2232291E1,1.6085135E1,5.558735E1,1.9401379E1,3.4038638E2,4.3618828E1,1.963168E1,3.213009E1,1.0063206E1,2.655731E2,1.3699897E3,2.4310884E3,2.2002822E3,8.373306E1,3.4584366E1,2.068887E1,4.1523657E2,3.2523926E1,2.4170273E1,3.0455136E2,6.822642E2,6.8256195E1,8.243667E2,7.5029114E2,4.7812244E1,2.5279144E1,2.433231E1,2.2953545E1,1.1425278E1,5.019481E1,1.6182613E2,2.8326277E1,3.2899006E1],"tree_param":{"num_deleted":"0","num_feature":"88","num_nodes":"105","size_leaf_vector":"1"}},{"base_weights":[7.6970863E-3,-3.758443E-2,9.939758E-2,-1.0851694E-1,1.5521476E-2,-9.557497E-2,1.2543769E-1,-2.9124802E-1,-8.591133E-2,-1.4172703E-1,4.6976946E-2,-2.097158E-1,1.00622535E-1,-1.2614968E-1,1.4385594E-1,-5.0863475E-1,-1.498169E-1,4.131163E-1,-9.6096896E-2,-1.8478289E-1,2.6538032E-1,4.1564232E-1,3.8015936E-2,1.264555E-1,-3.0344903E-1,-2.0939382E-2,6.532947E-1,5.469268E-2,-3.8967285E-1,5.942723E-2,1.8917643E-1,-8.21706E-1,-3.258222E-1,-2.6535198E-1,3.4863314E-1,-5.204118E-2,6.747178E-1,1.4258733E-1,-1.14426576E-1,-2.988168E-1,-3.490887E-4,-1.4416346E-1,5.6721777E-1,-1.3855432E-2,5.6853116E-1,3.904418E-1,2.9408226E-2,-1.564009E-1,5.0888395E-1,8.790291E-2,-3.995279E-1,6.670173E-2,-3.744563E-2,6.642607E-3,4.8612896E-2,2.1645771E-1,-2.1292752E-1,-1.2313134E-1,-7.5615233E-1,1.02920316E-1,-1.9856027E-1,2.2801788E-1,5.3025506E-2,-4.8679464E-2,-1.1059956E-2,-2.908648E-2,6.325547E-4,-2.110867E-2,3.568595E-3,5.1813688E-2,2.2053334E-3,-2.3434343E-2,1.8282985E-2,6.1466657E-3,5.337104E-2,2.0005805E-2,-5.4069697E-3,-8.779823E-3,-2.122295E-3,-2.0411912E-2,-4.186256E-3,-1.4307137E-2,1.0844885E-2,8.263028E-3,-3.4110196E-2,9.771054E-3,5.0020903E-2,3.7673973E-2,-0E0,6.068281E-2,1.0295463E-2,-7.7942054E-4,5.5940207E-3,1.2242607E-2,-3.1638663E-2,4.4629615E-2,1.0034258E-3,2.617583E-2,-2.2420716E-2,-2.4038762E-2,1.8849656E-3,-4.37624E-3,2.5650596E-2,-2.354723E-2,1.7408503E-2,-4.5478404E-2,7.6951855E-3,2.5743416E-2,-1.6563794E-2,-5.702916E-3,-5.3426225E-2,-2.3305388E-3,9.286346E-3,1.8472997E-3,-2.2054553E-2,1.2478791E-2,-9.715749E-3,-1.5348797E-2,6.417209E-3],"categories":[],"categories_nodes":[],"categories_segments":[],"categories_sizes":[],"default_left":[0,0,0,0,0,0,0,0,0,0,0,0,0,0,0,0,0,0,0,0,0,0,0,0,0,0,0,0,0,0,0,0,0,0,0,0,0,0,0,0,0,0,0,0,0,0,0,0,0,0,0,0,0,0,0,0,0,0,0,0,0,0,0,0,0,0,0,0,0,0,0,0,0,0,0,0,0,0,0,0,0,0,0,0,0,0,0,0,0,0,0,0,0,0,0,0,0,0,0,0,0,0,0,0,0,0,0,0,0,0,0,0,0,0,0,0,0,0,0],"id":7,"left_children":[1,3,5,7,9,11,13,15,17,19,21,23,25,27,29,31,33,35,37,39,41,43,45,47,49,51,53,55,57,59,61,63,65,67,69,71,73,75,77,79,81,83,85,-1,87,89,91,93,95,97,99,101,-1,-1,-1,103,105,107,109,111,113,115,117,-1,-1,-1,-1,-1,-1,-1,-1,-1,-1,-1,-1,-1,-1,-1,-1,-1,-1,-1,-1,-1,-1,-1,-1,-1,-1,-1,-1,-1,-1,-1,-1,-1,-1,-1,-1,-1,-1,-1,-1,-1,-1,-1,-1,-1,-1,-1,-1,-1,-1,-1,-1,-1,-1,-1,-1],"loss_changes":[4.6381985E1,2.8172745E1,1.8763008E1,1.3162796E1,2.1144268E1,9.777747E0,1.5119015E1,1.0667198E1,1.4500063E1,1.2527826E1,1.171269E1,8.745906E0,1.0854192E1,1.0655285E1,1.1584644E1,7.5088387E0,1.2448114E1,7.0362377E0,1.2242222E1,1.3536606E1,8.569981E0,9.105275E0,1.0505592E1,6.6702485E0,8.194605E0,8.559799E0,4.591238E0,5.7853503E0,8.695587E0,1.1938927E1,1.0404137E1,4.2229652E0,7.7652617E0,9.307534E0,8.362519E0,3.8914576E0,7.703514E0,1.2947531E1,1.1404293E1,9.290089E0,1.5453662E1,5.1000547E0,6.0754604E0,0E0,7.356821E0,1.2160227E1,1.2625325E1,6.9699316E0,4.79579E0,1.034088E1,6.241741E0,8.271066E0,0E0,0E0,0E0,7.6982493E0,1.3047436E1,7.3181562E0,7.36368E0,1.1298672E1,8.816799E0,1.4036415E1,1.1958703E1,0E0,0E0,0E0,0E0,0E0,0E0,0E0,0E0,0E0,0E0,0E0,0E0,0E0,0E0,0E0,0E0,0E0,0E0,0E0,0E0,0E0,0E0,0E0,0E0,0E0,0E0,0E0,0E0,0E0,0E0,0E0,0E0,0E0,0E0,0E0,0E0,0E0,0E0,0E0,0E0,0E0,0E0,0E0,0E0,0E0,0E0,0E0,0E0,0E0,0E0,0E0,0E0,0E0,0E0,0E0,0E0],"parents":[2147483647,0,0,1,1,2,2,3,3,4,4,5,5,6,6,7,7,8,8,9,9,10,10,11,11,12,12,13,13,14,14,15,15,16,16,17,17,18,18,19,19,20,20,21,21,22,22,23,23,24,24,25,25,26,26,27,27,28,28,29,29,30,30,31,31,32,32,33,33,34,34,35,35,36,36,37,37,38,38,39,39,40,40,41,41,42,42,44,44,45,45,46,46,47,47,48,48,49,49,50,50,51,51,55,55,56,56,57,57,58,58,59,59,60,60,61,61,62,62],"right_children":[2,4,6,8,10,12,14,16,18,20,22,24,26,28,30,32,34,36,38,40,42,44,46,48,50,52,54,56,58,60,62,64,66,68,70,72,74,76,78,80,82,84,86,-1,88,90,92,94,96,98,100,102,-1,-1,-1,104,106,108,110,112,114,116,118,-1,-1,-1,-1,-1,-1,-1,-1,-1,-1,-1,-1,-1,-1,-1,-1,-1,-1,-1,-1,-1,-1,-1,-1,-1,-1,-1,-1,-1,-1,-1,-1,-1,-1,-1,-1,-1,-1,-1,-1,-1,-1,-1,-1,-1,-1,-1,-1,-1,-1,-1,-1,-1,-1,-1,-1],"split_conditions":[2.9411765E-2,2.626458E-2,-1.1536938E-1,-1.10757954E-1,4.117647E-1,2.8970761E-2,-8.38314E-2,-1.4736198E-2,-1.9692579E-1,2.19858E-1,-1.3800819E-1,-5.10003E-2,5.7568878E-2,4.5645895E0,-2.2749979E-2,-5.178688E-2,8.275984E-2,-2.3005694E-2,-2.0911431E-1,-4.010264E-3,-2.7025051E-2,-5.613292E-2,-4.1790944E-1,-1.7648187E-2,3.4917293E0,6.701028E-2,-1.2780277E-2,2.8192941E-2,-1.0793553E-2,6.3036114E-2,1.583E1,3.960055E-2,2.329891E-2,1.9706104E-2,-1.8849876E-2,-1.6594127E-2,-2.1745717E-2,4.7643287E-3,1.3067964E-2,-4.9409147E-2,6.4461904E0,4.273215E-2,1.9803552E-2,-1.3855432E-2,5.8401126E-2,-4.009242E-2,2.094399E-1,7.956928E-3,1.1094572E-2,-7.378562E-3,7.116515E-2,5.2986924E-2,-3.744563E-2,6.642607E-3,4.8612896E-2,-8.77924E-2,-1.8146012E-2,-7.228739E-2,1.7142855E-4,-1.8171076E-2,8.0529675E-3,1.23348676E-1,1.7106667E1,-4.8679464E-2,-1.1059956E-2,-2.908648E-2,6.325547E-4,-2.110867E-2,3.568595E-3,5.1813688E-2,2.2053334E-3,-2.3434343E-2,1.8282985E-2,6.1466657E-3,5.337104E-2,2.0005805E-2,-5.4069697E-3,-8.779823E-3,-2.122295E-3,-2.0411912E-2,-4.186256E-3,-1.4307137E-2,1.0844885E-2,8.263028E-3,-3.4110196E-2,9.771054E-3,5.0020903E-2,3.7673973E-2,-0E0,6.068281E-2,1.0295463E-2,-7.7942054E-4,5.5940207E-3,1.2242607E-2,-3.1638663E-2,4.4629615E-2,1.0034258E-3,2.617583E-2,-2.2420716E-2,-2.4038762E-2,1.8849656E-3,-4.37624E-3,2.5650596E-2,-2.354723E-2,1.7408503E-2,-4.5478404E-2,7.6951855E-3,2.5743416E-2,-1.6563794E-2,-5.702916E-3,-5.3426225E-2,-2.3305388E-3,9.286346E-3,1.8472997E-3,-2.2054553E-2,1.2478791E-2,-9.715749E-3,-1.5348797E-2,6.417209E-3],"split_indices":[34,37,41,53,32,78,69,66,43,37,81,70,55,30,82,43,38,79,41,66,52,79,36,65,30,66,76,79,57,76,18,75,76,67,60,40,76,68,55,43,16,68,77,0,41,68,36,83,53,78,61,46,0,0,0,64,82,56,64,67,79,61,18,0,0,0,0,0,0,0,0,0,0,0,0,0,0,0,0,0,0,0,0,0,0,0,0,0,0,0,0,0,0,0,0,0,0,0,0,0,0,0,0,0,0,0,0,0,0,0,0,0,0,0,0,0,0,0,0],"split_type":[0,0,0,0,0,0,0,0,0,0,0,0,0,0,0,0,0,0,0,0,0,0,0,0,0,0,0,0,0,0,0,0,0,0,0,0,0,0,0,0,0,0,0,0,0,0,0,0,0,0,0,0,0,0,0,0,0,0,0,0,0,0,0,0,0,0,0,0,0,0,0,0,0,0,0,0,0,0,0,0,0,0,0,0,0,0,0,0,0,0,0,0,0,0,0,0,0,0,0,0,0,0,0,0,0,0,0,0,0,0,0,0,0,0,0,0,0,0,0],"sum_hessian":[1.1166702E4,7.475042E3,3.691661E3,3.20073E3,4.274312E3,4.3419116E2,3.2574697E3,3.505744E2,2.8501555E3,7.113799E2,3.5629321E3,2.7477655E2,1.594146E2,2.2143668E2,3.036033E3,1.3687982E2,2.1369458E2,5.6022682E1,2.7941328E3,6.4405597E2,6.73239E1,8.320602E1,3.479726E3,5.9601547E1,2.1517502E2,1.3131306E2,2.8101534E1,1.3156403E2,8.987264E1,1.062043E3,1.97399E3,4.897207E1,8.790775E1,1.7402567E2,3.9668915E1,2.031647E1,3.570621E1,1.9839905E2,2.595734E3,3.972668E2,2.4678918E2,2.864645E1,3.867745E1,1.4778223E1,6.8427795E1,8.162852E1,3.3980974E3,3.445044E1,2.515111E1,4.222537E1,1.7294965E2,1.1789109E2,1.342197E1,1.1335604E1,1.6765928E1,8.235112E1,4.9212914E1,5.296205E1,3.6910587E1,9.096734E2,1.5236954E2,1.5347451E3,4.3924493E2,3.8457417E1,1.0514651E1,4.981853E1,3.8089222E1,1.187594E2,5.526626E1,1.1337292E1,2.8331623E1,1.0229828E1,1.0086641E1,1.5497898E1,2.0208315E1,9.777475E1,1.006243E2,1.4017145E3,1.1940193E3,2.6241046E2,1.3485635E2,1.06642044E2,1.4014713E2,1.850901E1,1.013744E1,2.1718967E1,1.695848E1,5.1485767E1,1.6942028E1,1.3826879E1,6.780164E1,2.1983054E3,1.199792E3,1.8849451E1,1.5600987E1,1.3513068E1,1.1638041E1,2.3416265E1,1.8809103E1,1.4595653E2,2.6993118E1,8.8045876E1,2.9845217E1,1.2705703E1,6.964542E1,1.6559063E1,3.265385E1,1.2547552E1,4.0414497E1,1.263143E1,2.427916E1,3.2393863E2,5.857348E2,7.752514E1,7.484439E1,1.4608232E3,7.3921776E1,7.523587E1,3.6400906E2],"tree_param":{"num_deleted":"0","num_feature":"88","num_nodes":"119","size_leaf_vector":"1"}},{"base_weights":[-4.2251727E-4,1.9701473E-1,-1.4103835E-2,2.2493154E-1,-2.8356847E-1,-7.046914E-2,2.8385049E-2,6.1331797E-1,1.9208233E-1,-3.7812434E-2,1.0438024E-1,-3.0553482E-2,-1.8417357E-1,6.257993E-2,-9.464282E-2,9.098077E-1,-2.8690842E-3,-1.8127462E-1,2.2405988E-1,2.6417417E-2,-1.4226911E-2,-8.504432E-3,-2.2231093E-1,-1.4918306E-1,-5.1954997E-1,4.6256393E-2,3.1701434E-1,3.505676E-2,-1.04542546E-1,2.2646954E-2,6.97486E-2,1.4021619E-2,-4.1996458E-1,1.8524773E-1,5.997441E-1,1.00093834E-1,-4.9822215E-2,-6.6133785E-1,-1.6197217E-1,-6.7538947E-1,-1.24806345E-1,2.1782046E-2,-6.5317816E-1,2.3247093E-2,1.763779E-1,4.047418E-1,-6.363073E-2,-2.333226E-1,-2.892761E-2,-2.862306E-3,-4.2040575E-2,4.345085E-3,1.9490374E-2,7.2309994E-3,4.748219E-2,-1.0375669E-2,7.211996E-3,2.366155E-4,-7.025371E-3,-2.131964E-2,-5.997196E-2,4.0431131E-4,-1.6320996E-2,-8.520781E-3,-5.2753475E-2,-9.763912E-3,1.2683718E-3,2.353775E-2,-2.0661423E-2,-4.42216E-2,-2.0133397E-2,2.3980243E-2,7.8750495E-4,-2.5989106E-2,9.918291E-3,-1.5494431E-2,2.2752928E-2,3.1314734E-2,-1.2493434E-2,1.2630068E-2,-1.3992228E-2,-5.666819E-3,6.1376705E-3],"categories":[],"categories_nodes":[],"categories_segments":[],"categories_sizes":[],"default_left":[0,0,0,0,0,0,0,0,0,0,0,0,0,0,0,0,0,0,0,0,0,0,0,0,0,0,0,0,0,0,0,0,0,0,0,0,0,0,0,0,0,0,0,0,0,0,0,0,0,0,0,0,0,0,0,0,0,0,0,0,0,0,0,0,0,0,0,0,0,0,0,0,0,0,0,0,0,0,0,0,0,0,0],"id":8,"left_children":[1,3,5,7,9,11,13,15,17,-1,19,21,23,25,27,29,-1,31,33,-1,-1,35,37,39,41,43,45,-1,47,-1,-1,-1,49,51,53,55,57,59,61,63,65,67,69,71,73,75,77,79,81,-1,-1,-1,-1,-1,-1,-1,-1,-1,-1,-1,-1,-1,-1,-1,-1,-1,-1,-1,-1,-1,-1,-1,-1,-1,-1,-1,-1,-1,-1,-1,-1,-1,-1],"loss_changes":[3.0216742E1,9.783283E0,2.5076635E1,8.551811E0,7.4869084E0,2.0399725E1,2.5111994E1,1.0635218E1,7.614908E0,0E0,3.9267354E0,1.4067681E1,1.3568939E1,1.9351746E1,1.0238351E1,7.3338356E0,0E0,5.6780925E0,8.336374E0,0E0,0E0,1.3420217E1,8.902676E0,1.3430624E1,8.014891E0,1.312432E1,9.446894E0,0E0,1.245981E1,0E0,0E0,0E0,5.009328E0,1.0614277E1,8.362793E0,1.1212887E1,1.0739565E1,4.502735E0,8.515826E0,8.616098E0,1.0756716E1,4.603253E0,4.6238785E0,1.2716381E1,1.0159401E1,8.382858E0,6.9677444E0,1.0788334E1,1.03828945E1,0E0,0E0,0E0,0E0,0E0,0E0,0E0,0E0,0E0,0E0,0E0,0E0,0E0,0E0,0E0,0E0,0E0,0E0,0E0,0E0,0E0,0E0,0E0,0E0,0E0,0E0,0E0,0E0,0E0,0E0,0E0,0E0,0E0,0E0],"parents":[2147483647,0,0,1,1,2,2,3,3,4,4,5,5,6,6,7,7,8,8,10,10,11,11,12,12,13,13,14,14,15,15,17,17,18,18,21,21,22,22,23,23,24,24,25,25,26,26,28,28,32,32,33,33,34,34,35,35,36,36,37,37,38,38,39,39,40,40,41,41,42,42,43,43,44,44,45,45,46,46,47,47,48,48],"right_children":[2,4,6,8,10,12,14,16,18,-1,20,22,24,26,28,30,-1,32,34,-1,-1,36,38,40,42,44,46,-1,48,-1,-1,-1,50,52,54,56,58,60,62,64,66,68,70,72,74,76,78,80,82,-1,-1,-1,-1,-1,-1,-1,-1,-1,-1,-1,-1,-1,-1,-1,-1,-1,-1,-1,-1,-1,-1,-1,-1,-1,-1,-1,-1,-1,-1,-1,-1,-1,-1],"split_conditions":[-3.259662E-1,3.76E2,1E0,-8.2312755E-2,-2.3028493E-2,5.027901E-2,1.65E2,3.1700682E-2,-8.545095E-2,-3.7812434E-2,-1.10717565E-2,8.264636E-2,8.390408E-2,3.300716E-1,-1.5138462E0,1.2157098E-2,-2.8690842E-3,1E0,7.9183616E-2,2.6417417E-2,-1.4226911E-2,-4.0916532E-2,-1.2556218E-1,-1.2943174E-1,-7.006933E-2,1.3595688E-1,1E0,3.505676E-2,4E0,2.2646954E-2,6.97486E-2,1.4021619E-2,-1.999714E-3,7.415109E-2,-1.3229554E-2,-8.714476E-2,1.06243104E-1,8.105803E0,9.466644E-3,-1.4416397E-2,3.2404024E-2,-1.2565458E-2,7.2975E0,-1.4471385E-1,-1.3763367E-1,-9.096888E-2,-3.656859E-2,2.7272728E-1,2.9058658E-2,-2.862306E-3,-4.2040575E-2,4.345085E-3,1.9490374E-2,7.2309994E-3,4.748219E-2,-1.0375669E-2,7.211996E-3,2.366155E-4,-7.025371E-3,-2.131964E-2,-5.997196E-2,4.0431131E-4,-1.6320996E-2,-8.520781E-3,-5.2753475E-2,-9.763912E-3,1.2683718E-3,2.353775E-2,-2.0661423E-2,-4.42216E-2,-2.0133397E-2,2.3980243E-2,7.8750495E-4,-2.5989106E-2,9.918291E-3,-1.5494431E-2,2.2752928E-2,3.1314734E-2,-1.2493434E-2,1.2630068E-2,-1.3992228E-2,-5.666819E-3,6.1376705E-3],"split_indices":[37,14,10,75,52,57,14,39,69,0,48,72,80,37,18,50,0,84,70,0,0,68,49,79,43,38,3,0,32,0,0,0,81,51,67,75,39,16,69,75,76,67,18,81,61,56,57,32,82,0,0,0,0,0,0,0,0,0,0,0,0,0,0,0,0,0,0,0,0,0,0,0,0,0,0,0,0,0,0,0,0,0,0],"split_type":[0,0,0,0,0,0,0,0,0,0,0,0,0,0,0,0,0,0,0,0,0,0,0,0,0,0,0,0,0,0,0,0,0,0,0,0,0,0,0,0,0,0,0,0,0,0,0,0,0,0,0,0,0,0,0,0,0,0,0,0,0,0,0,0,0,0,0,0,0,0,0,0,0,0,0,0,0,0,0,0,0,0,0],"sum_hessian":[1.119115E4,7.238888E2,1.0467262E4,6.848465E2,3.9042305E1,4.499701E3,5.9675605E3,5.1790943E1,6.3305554E2,1.7287489E1,2.1754816E1,3.3321177E3,1.1675834E3,4.6706772E3,1.2968837E3,3.577072E1,1.6020224E1,4.932781E1,5.837277E2,1.0359895E1,1.139492E1,2.9898933E3,3.4222424E2,1.0588539E3,1.0872944E2,4.39057E3,2.8010736E2,1.4953326E1,1.2819303E3,1.9524559E1,1.624616E1,1.6608168E1,3.2719643E1,5.306638E2,5.3063896E1,8.229739E2,2.1669194E3,3.9947453E1,3.022768E2,4.5516037E1,1.0133379E3,2.1543736E1,8.71857E1,3.7325012E3,6.5806854E2,2.2780453E2,5.2302826E1,4.7298303E2,8.0894727E2,1.831124E1,1.4408403E1,3.5966272E2,1.7100111E2,2.3802477E1,2.9261417E1,1.0253695E2,7.2043695E2,1.3528907E3,8.1402875E2,2.9183594E1,1.076386E1,1.4877187E2,1.5350493E2,2.026965E1,2.524639E1,6.8993726E2,3.234006E2,1.0674417E1,1.086932E1,4.3811886E1,4.3373817E1,5.90927E1,3.6734084E3,1.9316025E1,6.387525E2,1.4514482E1,2.1329005E2,1.0501141E1,4.1801685E1,4.0751564E1,4.3223148E2,5.2031177E2,2.886355E2],"tree_param":{"num_deleted":"0","num_feature":"88","num_nodes":"83","size_leaf_vector":"1"}},{"base_weights":[1.230343E-3,2.3244487E-2,-1.13227814E-1,-3.848056E-2,7.737267E-2,-1.5291856E-1,2.3872292E-2,-4.717044E-2,4.1127202E-1,-2.4689462E-2,1.3172837E-1,-1.6478871E-1,3.6303857E-1,-7.448806E-2,2.4525198E-1,-9.535983E-3,-1.4332952E-1,8.083528E-1,9.659582E-2,8.164075E-2,-1.1384281E-1,1.1791713E-1,5.9706384E-1,-4.021542E-1,-1.4317387E-1,5.2217137E-2,-8.881635E-4,-7.350491E-1,-2.3498444E-3,8.3107036E-1,1.0303056E-1,-6.500138E-2,1.2780996E-1,-9.06039E-1,-1.2850817E-1,1.3565476E-2,1.0389578E0,3.1781133E-2,-2.783955E-1,-1.5880367E-1,1.4929257E-1,-1.560408E-1,2.2578026E-1,4.9499072E-2,1.7974535E-1,-4.60257E-3,7.4935716E-1,-5.1975137E-1,9.630951E-3,-1.0057074E-1,-2.893224E-1,2.312765E-2,-2.4607105E-2,-1.455641E-2,-6.022671E-2,3.1237978E-1,-9.216634E-2,2.1404162E-2,5.667938E-2,5.444816E-1,-4.0341955E-2,-1.5335425E-2,-1.537008E-3,8.41293E-3,-1.34220375E-2,-2.3284728E-2,-6.0393598E-2,-6.9361986E-3,3.5836693E-2,7.090392E-2,3.269766E-2,-3.4505304E-2,1.2929218E-2,-3.1431742E-2,-3.172626E-3,1.5279715E-2,2.5983562E-3,9.499657E-3,-1.0425805E-2,-2.6056557E-3,2.2549955E-2,5.431777E-3,-6.3086725E-3,7.112236E-3,2.141676E-2,4.2860232E-2,7.0073567E-3,-5.3900965E-2,-1.7594727E-2,9.0014556E-4,-8.950687E-3,-1.7829914E-2,1.8991372E-2,-2.4388565E-2,2.7667904E-2,-2.0078465E-2,3.646416E-3,-2.6793934E-3,5.275141E-2,2.2274394E-2,-1.3638526E-2],"categories":[],"categories_nodes":[],"categories_segments":[],"categories_sizes":[],"default_left":[0,0,0,0,0,0,0,0,0,0,0,0,0,0,0,0,0,0,0,0,0,0,0,0,0,0,0,0,0,0,0,0,0,0,0,0,0,0,0,0,0,0,0,0,0,0,0,0,0,0,0,0,0,0,0,0,0,0,0,0,0,0,0,0,0,0,0,0,0,0,0,0,0,0,0,0,0,0,0,0,0,0,0,0,0,0,0,0,0,0,0,0,0,0,0,0,0,0,0,0,0],"id":9,"left_children":[1,3,5,7,9,11,13,15,17,19,21,23,25,27,29,31,33,35,37,39,41,43,45,47,49,-1,51,53,55,57,59,61,63,65,67,-1,69,-1,71,73,75,77,79,81,83,-1,85,87,-1,89,91,-1,-1,-1,-1,93,95,-1,-1,97,99,-1,-1,-1,-1,-1,-1,-1,-1,-1,-1,-1,-1,-1,-1,-1,-1,-1,-1,-1,-1,-1,-1,-1,-1,-1,-1,-1,-1,-1,-1,-1,-1,-1,-1,-1,-1,-1,-1,-1,-1],"loss_changes":[2.8182333E1,3.136036E1,9.833481E0,1.7118004E1,2.7757877E1,8.6126175E0,8.861198E0,1.5552837E1,1.0201121E1,1.6488901E1,2.0834995E1,6.9123535E0,7.940525E0,1.3318844E1,1.025486E1,2.3571339E1,1.3451168E1,4.096836E0,9.829048E0,1.2917955E1,1.3590441E1,1.3383373E1,9.960663E0,8.059551E0,7.757223E0,0E0,5.1258035E0,5.238433E0,7.202448E0,2.3069935E0,6.5311794E0,1.821752E1,1.4297265E1,2.2950497E0,1.0296349E1,0E0,2.5133057E0,0E0,6.5539207E0,7.6962748E0,9.372501E0,1.5341482E1,6.618268E0,1.5673671E1,1.5401142E1,0E0,4.8331947E0,8.383072E0,0E0,9.089818E0,1.2855516E1,0E0,0E0,0E0,0E0,1.1169968E1,1.0230134E1,0E0,0E0,7.8688664E0,8.888374E0,0E0,0E0,0E0,0E0,0E0,0E0,0E0,0E0,0E0,0E0,0E0,0E0,0E0,0E0,0E0,0E0,0E0,0E0,0E0,0E0,0E0,0E0,0E0,0E0,0E0,0E0,0E0,0E0,0E0,0E0,0E0,0E0,0E0,0E0,0E0,0E0,0E0,0E0,0E0,0E0],"parents":[2147483647,0,0,1,1,2,2,3,3,4,4,5,5,6,6,7,7,8,8,9,9,10,10,11,11,12,12,13,13,14,14,15,15,16,16,17,17,18,18,19,19,20,20,21,21,22,22,23,23,24,24,26,26,27,27,28,28,29,29,30,30,31,31,32,32,33,33,34,34,36,36,38,38,39,39,40,40,41,41,42,42,43,43,44,44,46,46,47,47,49,49,50,50,55,55,56,56,59,59,60,60],"right_children":[2,4,6,8,10,12,14,16,18,20,22,24,26,28,30,32,34,36,38,40,42,44,46,48,50,-1,52,54,56,58,60,62,64,66,68,-1,70,-1,72,74,76,78,80,82,84,-1,86,88,-1,90,92,-1,-1,-1,-1,94,96,-1,-1,98,100,-1,-1,-1,-1,-1,-1,-1,-1,-1,-1,-1,-1,-1,-1,-1,-1,-1,-1,-1,-1,-1,-1,-1,-1,-1,-1,-1,-1,-1,-1,-1,-1,-1,-1,-1,-1,-1,-1,-1,-1],"split_conditions":[1.65E2,1E0,9.791874E-2,2.3512512E-1,-3.929442E-2,1.7906243E-1,3.99303E-2,1E0,-3.579317E-2,8.655931E-2,5.184232E0,-9.767996E-2,-5.9955053E-2,-7.617344E-2,-7.5679824E-2,1E0,-5.8E0,3.6714056E0,-8.646052E-3,-5.6933705E-2,1.2125988E-1,-3.5303098E-3,-5.73851E-2,5.9251882E-2,7.74E2,5.2217137E-2,-4.0945807E-4,1.8596228E-2,-5.5485122E-2,3.225733E-2,-5.215489E-2,-1.18357316E-1,6.1E1,3.321575E-2,2.9744592E-1,1.3565476E-2,1.8459506E-2,3.1781133E-2,3.9525267E-2,-5.3582806E-2,-5.3054553E-2,-6.6225916E-2,4.2927824E-3,7.1E1,8.264072E-2,-4.60257E-3,8.6756594E-2,-6.583452E-2,9.630951E-3,-1.881139E-2,1.1895949E-1,2.312765E-2,-2.4607105E-2,-1.455641E-2,-6.022671E-2,-4.4328593E-2,6.8973124E-2,2.1404162E-2,5.667938E-2,4.4023037E0,-3.330625E-2,-1.5335425E-2,-1.537008E-3,8.41293E-3,-1.34220375E-2,-2.3284728E-2,-6.0393598E-2,-6.9361986E-3,3.5836693E-2,7.090392E-2,3.269766E-2,-3.4505304E-2,1.2929218E-2,-3.1431742E-2,-3.172626E-3,1.5279715E-2,2.5983562E-3,9.499657E-3,-1.0425805E-2,-2.6056557E-3,2.2549955E-2,5.431777E-3,-6.3086725E-3,7.112236E-3,2.141676E-2,4.2860232E-2,7.0073567E-3,-5.3900965E-2,-1.7594727E-2,9.0014556E-4,-8.950687E-3,-1.7829914E-2,1.8991372E-2,-2.4388565E-2,2.7667904E-2,-2.0078465E-2,3.646416E-3,-2.6793934E-3,5.275141E-2,2.2274394E-2,-1.3638526E-2],"split_indices":[14,10,49,41,49,52,69,11,71,36,30,41,51,65,38,12,17,30,79,60,51,83,78,70,14,0,69,59,55,61,80,51,14,59,36,0,66,0,68,74,43,81,71,14,60,0,67,44,0,80,60,0,0,0,0,58,43,0,0,30,57,0,0,0,0,0,0,0,0,0,0,0,0,0,0,0,0,0,0,0,0,0,0,0,0,0,0,0,0,0,0,0,0,0,0,0,0,0,0,0,0],"split_type":[0,0,0,0,0,0,0,0,0,0,0,0,0,0,0,0,0,0,0,0,0,0,0,0,0,0,0,0,0,0,0,0,0,0,0,0,0,0,0,0,0,0,0,0,0,0,0,0,0,0,0,0,0,0,0,0,0,0,0,0,0,0,0,0,0,0,0,0,0,0,0,0,0,0,0,0,0,0,0,0,0,0,0,0,0,0,0,0,0,0,0,0,0,0,0,0,0,0,0,0,0],"sum_hessian":[1.1186331E4,9.383281E3,1.8030494E3,4.3832666E3,5.0000146E3,1.3987286E3,4.0432074E2,4.3012773E3,8.198955E1,1.7370714E3,3.2629434E3,1.3681278E3,3.0600796E1,2.8008783E2,1.2423292E2,3.0929187E3,1.2083584E3,3.5414448E1,4.6575096E1,7.917456E2,9.453258E2,3.1703162E3,9.2627205E1,1.12330185E2,1.2557977E3,1.0099235E1,2.0501562E1,2.6534933E1,2.5355289E2,2.318518E1,1.0104774E2,2.204083E3,8.888359E2,2.1758995E1,1.1865995E3,1.1422762E1,2.3991688E1,1.8932474E1,2.7642622E1,1.7323119E2,6.185144E2,8.415933E2,1.0373254E2,1.5065793E3,1.6637368E3,1.6718094E1,7.590912E1,9.4032555E1,1.8297626E1,9.741885E2,2.8160922E2,1.0474731E1,1.0026832E1,1.4580994E1,1.19539385E1,5.5495945E1,1.9805695E2,1.111902E1,1.206616E1,2.4257504E1,7.679024E1,2.7228534E2,1.9317976E3,8.072598E2,8.157608E1,1.0017966E1,1.174103E1,1.173372E3,1.3227483E1,1.0605382E1,1.3386306E1,1.5590337E1,1.2052284E1,2.8105108E1,1.4512608E2,2.3612975E2,3.8238467E2,1.10224174E2,7.3136914E2,4.6581306E1,5.7151226E1,1.1278599E3,3.7871948E2,1.4473705E3,2.1636633E2,6.400686E1,1.1902253E1,2.0346153E1,7.36864E1,3.876764E2,5.865121E2,2.5644315E2,2.516607E1,1.251192E1,4.2984024E1,6.862346E1,1.2943349E2,1.1493199E1,1.2764304E1,2.4413479E1,5.237676E1],"tree_param":{"num_deleted":"0","num_feature":"88","num_nodes":"101","size_leaf_vector":"1"}},{"base_weights":[3.7098257E-3,1.9839287E-1,-9.868333E-3,8.296648E-2,3.068764E-1,1.2366453E-2,-1.24844775E-1,2.0486145E-1,-1.02780946E-1,4.1059885E-2,3.971187E-1,-4.6577875E-2,6.4128794E-2,-2.0549293E-1,-4.67133E-2,4.801535E-1,5.009135E-2,3.621612E-2,-1.8257944E-1,1.4541747E-1,-2.8480906E-2,-8.028893E-3,4.3619117E-1,-5.702549E-2,3.6635578E-1,1.4427973E-1,8.618167E-3,-3.0457303E-1,-9.8031744E-2,-5.1333296E-1,-2.9501006E-2,1.1703221E-1,7.174158E-1,2.857571E-1,-2.1775028E-1,-6.553563E-2,-4.4408854E-2,2.5936845E-1,-2.838929E-2,4.7626245E-1,-1.101259E-2,-4.747428E-3,-1.2752077E-1,2.3659912E-1,4.5756135E-2,-1.1240173E-1,1.8558879E-1,3.5208148E-1,-7.4115205E-3,-3.380942E-1,2.2202566E-2,1.9612452E-2,-3.0180293E-1,-4.5699093E-2,-2.846922E-3,-1.8457262E-2,-4.193024E-2,-2.2122419E-2,2.6263628E-2,2.1528084E-2,5.399921E-2,4.379633E-2,2.711643E-3,-2.3695736E-3,-4.590179E-2,-1.6481487E-2,8.62638E-3,2.0585619E-2,-1.4205023E-2,1.6198596E-2,3.4737725E-2,-2.180701E-3,8.474319E-3,-4.4994485E-3,-1.4036235E-2,2.8892139E-3,3.435099E-2,3.5434663E-3,-1.6359078E-2,1.0818927E-2,-4.641199E-3,2.295139E-2,-1.7425526E-2,1.296236E-3,-6.682223E-3,-1.261003E-2,-2.9443935E-2,-1.5422587E-2,8.038092E-3,7.3713176E-3,-2.1041369E-2,2.4351284E-2,-1.6261386E-3],"categories":[],"categories_nodes":[],"categories_segments":[],"categories_sizes":[],"default_left":[0,0,0,0,0,0,0,0,0,0,0,0,0,0,0,0,0,0,0,0,0,0,0,0,0,0,0,0,0,0,0,0,0,0,0,0,0,0,0,0,0,0,0,0,0,0,0,0,0,0,0,0,0,0,0,0,0,0,0,0,0,0,0,0,0,0,0,0,0,0,0,0,0,0,0,0,0,0,0,0,0,0,0,0,0,0,0,0,0,0,0,0,0],"id":10,"left_children":[1,3,5,7,9,11,13,15,17,19,21,23,25,27,29,31,33,-1,35,37,-1,-1,39,41,43,45,47,49,51,53,55,57,59,61,63,65,-1,67,-1,69,-1,71,73,75,-1,77,79,81,83,85,-1,87,89,-1,-1,91,-1,-1,-1,-1,-1,-1,-1,-1,-1,-1,-1,-1,-1,-1,-1,-1,-1,-1,-1,-1,-1,-1,-1,-1,-1,-1,-1,-1,-1,-1,-1,-1,-1,-1,-1,-1,-1],"loss_changes":[2.9495367E1,9.045055E0,2.666048E1,8.052811E0,8.916283E0,2.6655025E1,1.061377E1,9.064964E0,9.365532E0,6.173536E0,6.1764755E0,1.760765E1,2.0681187E1,8.774067E0,6.8400517E0,6.4552364E0,8.82378E0,0E0,1.0520063E1,6.8723016E0,0E0,0E0,6.999645E0,1.466866E1,6.836626E0,2.0203205E1,1.5178945E1,1.0960934E1,9.633502E0,5.3981113E0,7.323801E0,7.4899344E0,4.1816673E0,1.0026972E1,7.6485786E0,7.1176496E0,0E0,6.130974E0,0E0,7.8776703E0,0E0,1.5498555E1,9.68726E0,6.5639076E0,0E0,1.0442686E1,1.4088078E1,9.381809E0,1.1074592E1,8.6730995E0,0E0,1.1819445E1,7.9460516E0,0E0,0E0,5.806925E0,0E0,0E0,0E0,0E0,0E0,0E0,0E0,0E0,0E0,0E0,0E0,0E0,0E0,0E0,0E0,0E0,0E0,0E0,0E0,0E0,0E0,0E0,0E0,0E0,0E0,0E0,0E0,0E0,0E0,0E0,0E0,0E0,0E0,0E0,0E0,0E0,0E0],"parents":[2147483647,0,0,1,1,2,2,3,3,4,4,5,5,6,6,7,7,8,8,9,9,10,10,11,11,12,12,13,13,14,14,15,15,16,16,18,18,19,19,22,22,23,23,24,24,25,25,26,26,27,27,28,28,29,29,30,30,31,31,32,32,33,33,34,34,35,35,37,37,39,39,41,41,42,42,43,43,45,45,46,46,47,47,48,48,49,49,51,51,52,52,55,55],"right_children":[2,4,6,8,10,12,14,16,18,20,22,24,26,28,30,32,34,-1,36,38,-1,-1,40,42,44,46,48,50,52,54,56,58,60,62,64,66,-1,68,-1,70,-1,72,74,76,-1,78,80,82,84,86,-1,88,90,-1,-1,92,-1,-1,-1,-1,-1,-1,-1,-1,-1,-1,-1,-1,-1,-1,-1,-1,-1,-1,-1,-1,-1,-1,-1,-1,-1,-1,-1,-1,-1,-1,-1,-1,-1,-1,-1,-1,-1],"split_conditions":[-3.259662E-1,2.4555866E-3,1.65E2,7.4681006E-3,-8.881628E-2,1E0,5.074091E-2,-6.1275624E-2,-6.225428E-2,6.532195E-2,-7.9623796E-2,2.160294E-1,1E0,8.6E1,-1.5559754E-1,-1.0455277E-2,1.610654E-2,3.621612E-2,1.10087834E-1,7.296565E-2,-2.8480906E-2,-8.028893E-3,8.307017E-2,1.7619157E-2,5.081815E-2,-7.1015075E-2,-1.7210674E-1,1.6655636E-1,2.7487382E-2,3.0913541E-2,2.4731448E-1,-1.5081268E-2,-9.981841E-3,-3.448891E-2,2E0,4.765475E-3,-4.4408854E-2,2.832464E-2,-2.838929E-2,-2.684201E-3,-1.101259E-2,1.1377602E-1,9.2421666E-2,2.1412028E-1,4.5756135E-2,9.605793E-3,8.900514E-2,9.027345E-2,6.914519E-2,7.041487E-2,2.2202566E-2,-2.7504222E-2,-1.0239772E-1,-4.5699093E-2,-2.846922E-3,2.7272728E-1,-4.193024E-2,-2.2122419E-2,2.6263628E-2,2.1528084E-2,5.399921E-2,4.379633E-2,2.711643E-3,-2.3695736E-3,-4.590179E-2,-1.6481487E-2,8.62638E-3,2.0585619E-2,-1.4205023E-2,1.6198596E-2,3.4737725E-2,-2.180701E-3,8.474319E-3,-4.4994485E-3,-1.4036235E-2,2.8892139E-3,3.435099E-2,3.5434663E-3,-1.6359078E-2,1.0818927E-2,-4.641199E-3,2.295139E-2,-1.7425526E-2,1.296236E-3,-6.682223E-3,-1.261003E-2,-2.9443935E-2,-1.5422587E-2,8.038092E-3,7.3713176E-3,-2.1041369E-2,2.4351284E-2,-1.6261386E-3],"split_indices":[37,53,14,79,45,10,41,53,74,80,64,41,35,0,55,55,57,0,45,56,0,0,82,57,78,60,43,52,56,56,48,70,66,56,0,66,0,78,0,82,0,37,48,46,0,64,64,80,39,46,0,76,45,0,0,32,0,0,0,0,0,0,0,0,0,0,0,0,0,0,0,0,0,0,0,0,0,0,0,0,0,0,0,0,0,0,0,0,0,0,0,0,0],"split_type":[0,0,0,0,0,0,0,0,0,0,0,0,0,0,0,0,0,0,0,0,0,0,0,0,0,0,0,0,0,0,0,0,0,0,0,0,0,0,0,0,0,0,0,0,0,0,0,0,0,0,0,0,0,0,0,0,0,0,0,0,0,0,0,0,0,0,0,0,0,0,0,0,0,0,0,0,0,0,0,0,0,0,0,0,0,0,0,0,0,0,0,0,0],"sum_hessian":[1.1149087E4,7.26488E2,1.04226E4,3.5328238E2,3.7320563E2,8.733658E3,1.6889409E3,2.1356671E2,1.3971565E2,9.523775E1,2.7796786E2,4.0826787E3,4.6509795E3,8.296535E2,8.592874E2,7.5868935E1,1.3769778E2,1.1472659E1,1.28243E2,8.212858E1,1.3109165E1,1.7828321E1,2.6013956E2,3.9830088E3,9.9669846E1,1.9017178E3,2.7492617E3,4.3022122E2,3.994323E2,2.9337017E1,8.299504E2,3.0738903E1,4.5130035E1,7.34116E1,6.428618E1,1.1105578E2,1.7187218E1,7.1483894E1,1.0644688E1,2.4557568E2,1.4563872E1,2.2884329E3,1.6945759E3,8.1914444E1,1.7755404E1,2.6305225E2,1.6386655E3,1.21932144E2,2.6273296E3,4.1243552E2,1.778568E1,2.5349426E2,1.4593803E2,1.4972014E1,1.4365003E1,8.1990564E2,1.0044776E1,1.28287525E1,1.791015E1,2.6571072E1,1.8558962E1,1.9778856E1,5.3632744E1,5.2680935E1,1.1605245E1,5.2666225E1,5.8389553E1,5.6166008E1,1.5317885E1,1.4644377E2,9.913191E1,1.8721364E3,4.162966E2,1.3629271E3,3.316488E2,5.9602745E1,2.2311697E1,1.4204773E2,1.2100452E2,1.4760146E3,1.6265082E2,1.0620703E2,1.5725113E1,2.0784456E3,5.488841E2,3.090056E2,1.0342992E2,7.568677E1,1.778075E2,3.0341713E1,1.1559633E2,2.1094143E1,7.9881146E2],"tree_param":{"num_deleted":"0","num_feature":"88","num_nodes":"93","size_leaf_vector":"1"}},{"base_weights":[2.9522746E-3,1.9655773E-1,-1.0404456E-2,2.9272893E-1,6.0664535E-2,-2.1471342E-2,1.5811405E-1,3.57324E-1,-4.0104043E-2,7.089231E-1,2.974704E-3,-9.557449E-2,5.740496E-3,6.875509E-1,1.2120932E-1,2.173645E-1,4.7822648E-1,-4.0516403E-2,1.191261E-1,1.1616948E-2,6.2656514E-2,-2.6679635E-1,1.6435055E-1,-1.14503294E-1,1.5389459E-1,3.9415855E-2,-7.075915E-2,6.289273E-2,3.790156E-1,-3.987592E-2,1.4418943E-1,-1.0059043E-1,4.0958282E-1,5.3634596E-1,-1.4799726E-2,-3.239436E-1,5.0625324E-1,2.1880427E-2,-4.0876997E-1,-4.6893352E-1,2.8299284E-1,-1.6793124E-1,-3.9054688E-2,-8.6194284E-2,4.105804E-1,-1.9533457E-2,1.0920093E-1,-1.2309118E-1,7.129434E-2,4.489645E-2,-2.5110024E-3,2.1325356E-1,-1.3462107E-1,3.1850636E-3,-3.3754658E-2,2.7925909E-2,-1.4479281E-2,1.3365026E-2,3.4077723E-2,-3.8801193E-2,2.1701287E-3,4.8730318E-3,4.5505367E-2,1.19365705E-2,-2.8273111E-2,-2.3865215E-4,-5.105997E-2,9.977748E-3,3.595166E-2,-2.0199567E-2,-7.0988806E-3,1.4074882E-2,-3.8278827E-3,-1.2315822E-2,1.8363757E-2,2.8923437E-2,-4.170752E-3,-2.2964966E-3,7.676021E-3,1.0601094E-2,2.5745586E-3,-1.5815279E-2,-4.754981E-3,8.759805E-3,-7.20774E-3,3.4934204E-2,8.991733E-3,7.5875134E-5,-3.527315E-2],"categories":[],"categories_nodes":[],"categories_segments":[],"categories_sizes":[],"default_left":[0,0,0,0,0,0,0,0,0,0,0,0,0,0,0,0,0,0,0,0,0,0,0,0,0,0,0,0,0,0,0,0,0,0,0,0,0,0,0,0,0,0,0,0,0,0,0,0,0,0,0,0,0,0,0,0,0,0,0,0,0,0,0,0,0,0,0,0,0,0,0,0,0,0,0,0,0,0,0,0,0,0,0,0,0,0,0,0,0],"id":11,"left_children":[1,3,5,7,9,11,13,15,17,19,21,23,25,27,29,31,33,-1,35,-1,-1,37,39,41,43,45,47,-1,49,-1,51,53,55,57,-1,59,61,-1,63,65,67,69,71,73,75,77,79,81,83,-1,-1,85,87,-1,-1,-1,-1,-1,-1,-1,-1,-1,-1,-1,-1,-1,-1,-1,-1,-1,-1,-1,-1,-1,-1,-1,-1,-1,-1,-1,-1,-1,-1,-1,-1,-1,-1,-1,-1],"loss_changes":[2.8813911E1,9.345154E0,1.9416111E1,9.084721E0,1.1135205E1,1.9722588E1,1.236932E1,5.7902374E0,8.625407E0,5.8747625E0,1.2064938E1,1.2417522E1,1.8419727E1,6.645996E0,1.2739557E1,1.0190689E1,8.636677E0,0E0,1.0117925E1,0E0,0E0,1.0535748E1,1.3170391E1,9.818329E0,1.1487691E1,2.044131E1,1.6256685E1,0E0,6.459376E0,0E0,1.1346416E1,6.049103E0,1.09740925E1,6.568863E0,0E0,4.673971E0,4.998617E0,0E0,8.979238E0,6.9833994E0,5.1168756E0,8.641762E0,1.2198587E1,7.076071E0,7.5563517E0,1.2294402E1,1.3462425E1,8.569178E0,1.319875E1,0E0,0E0,7.434046E0,9.158718E0,0E0,0E0,0E0,0E0,0E0,0E0,0E0,0E0,0E0,0E0,0E0,0E0,0E0,0E0,0E0,0E0,0E0,0E0,0E0,0E0,0E0,0E0,0E0,0E0,0E0,0E0,0E0,0E0,0E0,0E0,0E0,0E0,0E0,0E0,0E0,0E0],"parents":[2147483647,0,0,1,1,2,2,3,3,4,4,5,5,6,6,7,7,8,8,9,9,10,10,11,11,12,12,13,13,14,14,15,15,16,16,18,18,21,21,22,22,23,23,24,24,25,25,26,26,28,28,30,30,31,31,32,32,33,33,35,35,36,36,38,38,39,39,40,40,41,41,42,42,43,43,44,44,45,45,46,46,47,47,48,48,51,51,52,52],"right_children":[2,4,6,8,10,12,14,16,18,20,22,24,26,28,30,32,34,-1,36,-1,-1,38,40,42,44,46,48,-1,50,-1,52,54,56,58,-1,60,62,-1,64,66,68,70,72,74,76,78,80,82,84,-1,-1,86,88,-1,-1,-1,-1,-1,-1,-1,-1,-1,-1,-1,-1,-1,-1,-1,-1,-1,-1,-1,-1,-1,-1,-1,-1,-1,-1,-1,-1,-1,-1,-1,-1,-1,-1,-1,-1],"split_conditions":[-3.259662E-1,7.4681006E-3,2.663991E-1,6.5496646E-2,-9.527298E-2,-4.2005993E-2,-1.02516025E-1,-4.4178644E-1,-3.583228E-2,-4.9892385E-3,3.1803202E-2,2.6038727E-1,7.9E1,-2.969806E-2,-9.6448794E-2,-4.206971E-4,8.390408E-2,-4.0516403E-2,9.531765E-2,1.1616948E-2,6.2656514E-2,-1.5996389E-1,-6.722571E-2,1.2492282E-2,7.0911534E-3,1E0,1.0593977E-1,6.289273E-2,1.0599414E-2,-3.987592E-2,7.584656E-2,7.5008795E-2,6.7255184E-2,-1.693778E-2,-1.4799726E-2,9.3348725E-3,2.4555866E-3,2.1880427E-2,-4.3859594E-2,1.5833447E-2,6.560464E-2,-1.319796E-1,-9.85829E-2,2.4813998E-2,7.8E1,7.022454E-2,-7.991685E-2,1E0,3.0835815E-2,4.489645E-2,-2.5110024E-3,-1.3838436E-1,9.132665E-2,3.1850636E-3,-3.3754658E-2,2.7925909E-2,-1.4479281E-2,1.3365026E-2,3.4077723E-2,-3.8801193E-2,2.1701287E-3,4.8730318E-3,4.5505367E-2,1.19365705E-2,-2.8273111E-2,-2.3865215E-4,-5.105997E-2,9.977748E-3,3.595166E-2,-2.0199567E-2,-7.0988806E-3,1.4074882E-2,-3.8278827E-3,-1.2315822E-2,1.8363757E-2,2.8923437E-2,-4.170752E-3,-2.2964966E-3,7.676021E-3,1.0601094E-2,2.5745586E-3,-1.5815279E-2,-4.754981E-3,8.759805E-3,-7.20774E-3,3.4934204E-2,8.991733E-3,7.5875134E-5,-3.527315E-2],"split_indices":[37,79,36,54,59,67,81,37,51,42,79,37,14,72,38,83,80,0,54,0,0,44,53,83,55,7,41,0,51,0,72,60,57,74,0,74,53,0,74,64,70,51,64,78,14,75,36,9,63,0,0,68,69,0,0,0,0,0,0,0,0,0,0,0,0,0,0,0,0,0,0,0,0,0,0,0,0,0,0,0,0,0,0,0,0,0,0,0,0],"split_type":[0,0,0,0,0,0,0,0,0,0,0,0,0,0,0,0,0,0,0,0,0,0,0,0,0,0,0,0,0,0,0,0,0,0,0,0,0,0,0,0,0,0,0,0,0,0,0,0,0,0,0,0,0,0,0,0,0,0,0,0,0,0,0,0,0,0,0,0,0,0,0,0,0,0,0,0,0,0,0,0,0,0,0,0,0,0,0,0,0],"sum_hessian":[1.1133556E4,7.1812494E2,1.0415431E4,4.194157E2,2.9870923E2,9.774959E3,6.404716E2,3.5143695E2,6.797878E1,2.3346256E1,2.7536298E2,2.6257344E3,7.1492246E3,4.0409847E1,6.0006177E2,1.645616E2,1.8687534E2,1.1052911E1,5.6925873E1,1.3305117E1,1.004114E1,1.0259036E2,1.7277263E2,2.4414294E3,1.8430495E2,4.965284E3,2.1839402E3,1.2992762E1,2.7417086E1,1.3714393E1,5.8634735E2,6.1985573E1,1.0257603E2,1.7423239E2,1.2642934E1,2.6500626E1,3.0425247E1,1.6741316E1,8.5849045E1,2.6661983E1,1.4611064E2,1.4278002E3,1.01362933E3,9.537313E1,8.8931816E1,2.6912234E3,2.274061E3,1.5965968E3,5.873435E2,1.2023107E1,1.5393979E1,4.7041476E2,1.1593258E2,4.8757385E1,1.322819E1,8.484643E1,1.7729605E1,6.2310886E1,1.1192151E2,1.1503443E1,1.4997183E1,1.586012E1,1.4565127E1,1.6500805E1,6.9348236E1,1.5132962E1,1.1529021E1,1.2405857E2,2.2052069E1,1.3960556E2,1.2881946E3,1.0520753E2,9.084218E2,7.098525E1,2.438788E1,6.6397514E1,2.25343E1,2.3361895E3,3.5503412E2,8.159262E2,1.4581348E3,2.002791E2,1.3963176E3,3.9668872E2,1.9065477E2,2.8824303E1,4.4159048E2,9.427205E1,2.166053E1],"tree_param":{"num_deleted":"0","num_feature":"88","num_nodes":"89","size_leaf_vector":"1"}},{"base_weights":[-6.6006756E-3,-4.332721E-2,6.743835E-2,-1.0389738E-2,-1.2612806E-1,-1.1673909E-1,9.212496E-2,3.225523E-2,-1.1395936E-1,3.0517912E-2,-1.3253835E-1,-6.743743E-2,-5.350493E-1,1.3396469E-1,-3.8605932E-2,1.5362279E-2,2.4808897E-1,-1.7517088E-1,-1.5240521E-2,-6.0725294E-2,-1.9036247E-1,-6.7290056E-1,-3.1687178E-2,9.774776E-3,-1.0041592E0,5.204716E-2,1.9717243E-1,-4.620864E-1,-1.055647E-2,-8.7079307E-4,2.2867672E-1,-2.2808288E-1,3.3914417E-1,-1.6149588E-1,-5.26102E-2,-1.0659189E-1,1.20906375E-1,-2.8317672E-1,-1.8576784E-2,-2.2765626E-1,5.15078E-2,-1.0832055E-2,-5.3629834E-2,-1.6984405E-1,1.0410197E-1,-1.9397404E-2,2.1027032E-2,-1.8683158E-2,-7.3991425E-2,-2.5493696E-1,9.008104E-2,2.6789518E-2,2.4443202E-1,-1.0985604E-2,-8.11166E-1,-2.3264447E-1,3.684127E-2,-2.1703739E-2,2.9393658E-4,2.8568575E-2,5.195951E-3,-2.8920397E-2,1.0633854E-2,1.6933883E-3,2.3761278E-2,-4.4575498E-2,-7.427409E-3,3.2871548E-2,-7.127613E-3,-1.9916547E-3,1.7680738E-2,-7.4830535E-3,-4.1360926E-2,-6.5215975E-3,4.3952614E-3,-1.8102704E-2,-7.5609796E-3,1.3552934E-2,-9.243192E-3,-2.115078E-2,1.1322829E-3,2.414628E-2,-0E0,-7.009264E-3,-4.4726823E-2,7.2579696E-3,-3.9926614E-3,8.566805E-3,-1.5666878E-2,1.0965489E-2,2.7448012E-2,-2.268005E-2,2.1582954E-2,-5.618995E-2,-1.6938455E-2,2.315016E-2,-1.5000823E-2,2.6784688E-2,7.0960395E-4],"categories":[],"categories_nodes":[],"categories_segments":[],"categories_sizes":[],"default_left":[0,0,0,0,0,0,0,0,0,0,0,0,0,0,0,0,0,0,0,0,0,0,0,0,0,0,0,0,0,0,0,0,0,0,0,0,0,0,0,0,0,0,0,0,0,0,0,0,0,0,0,0,0,0,0,0,0,0,0,0,0,0,0,0,0,0,0,0,0,0,0,0,0,0,0,0,0,0,0,0,0,0,0,0,0,0,0,0,0,0,0,0,0,0,0,0,0,0,0],"id":12,"left_children":[1,3,5,7,9,11,13,15,17,-1,19,21,23,25,27,29,31,33,35,37,39,41,43,45,47,49,51,53,55,57,59,61,63,65,-1,67,69,71,73,75,77,-1,-1,79,81,-1,-1,-1,-1,83,85,87,89,91,93,95,97,-1,-1,-1,-1,-1,-1,-1,-1,-1,-1,-1,-1,-1,-1,-1,-1,-1,-1,-1,-1,-1,-1,-1,-1,-1,-1,-1,-1,-1,-1,-1,-1,-1,-1,-1,-1,-1,-1,-1,-1,-1,-1],"loss_changes":[3.0386652E1,2.0360329E1,1.6852406E1,2.3627241E1,1.0066284E1,8.933311E0,1.7888954E1,1.377917E1,9.407106E0,0E0,8.716049E0,8.415554E0,1.181598E1,1.2786945E1,9.361301E0,1.219119E1,1.1986942E1,1.1251511E1,7.4604645E0,8.800663E0,1.0550449E1,3.597434E0,7.009115E0,3.774229E0,6.6755657E0,1.2623322E1,1.1213345E1,7.622548E0,7.8650985E0,9.595156E0,1.0516387E1,7.0268064E0,9.527246E0,8.733006E0,0E0,9.916631E0,9.0425E0,1.0650315E1,9.469685E0,1.0280983E1,8.168765E0,0E0,0E0,9.079713E0,7.442547E0,0E0,0E0,0E0,0E0,8.512011E0,9.026875E0,1.5028618E1,8.163773E0,4.607884E0,3.5309582E0,6.2833905E0,6.8752856E0,0E0,0E0,0E0,0E0,0E0,0E0,0E0,0E0,0E0,0E0,0E0,0E0,0E0,0E0,0E0,0E0,0E0,0E0,0E0,0E0,0E0,0E0,0E0,0E0,0E0,0E0,0E0,0E0,0E0,0E0,0E0,0E0,0E0,0E0,0E0,0E0,0E0,0E0,0E0,0E0,0E0,0E0],"parents":[2147483647,0,0,1,1,2,2,3,3,4,4,5,5,6,6,7,7,8,8,10,10,11,11,12,12,13,13,14,14,15,15,16,16,17,17,18,18,19,19,20,20,21,21,22,22,23,23,24,24,25,25,26,26,27,27,28,28,29,29,30,30,31,31,32,32,33,33,35,35,36,36,37,37,38,38,39,39,40,40,43,43,44,44,49,49,50,50,51,51,52,52,53,53,54,54,55,55,56,56],"right_children":[2,4,6,8,10,12,14,16,18,-1,20,22,24,26,28,30,32,34,36,38,40,42,44,46,48,50,52,54,56,58,60,62,64,66,-1,68,70,72,74,76,78,-1,-1,80,82,-1,-1,-1,-1,84,86,88,90,92,94,96,98,-1,-1,-1,-1,-1,-1,-1,-1,-1,-1,-1,-1,-1,-1,-1,-1,-1,-1,-1,-1,-1,-1,-1,-1,-1,-1,-1,-1,-1,-1,-1,-1,-1,-1,-1,-1,-1,-1,-1,-1,-1,-1],"split_conditions":[2.9411765E-2,6.6E1,-1.1536938E-1,8.283126E-2,-1.8509085E-1,7.1196884E-2,1.7E2,1.0369509E-1,1.1E1,3.0517912E-2,-8.72523E-3,-8.51856E-2,-5.333116E-4,1E0,-9.432082E-2,2.784531E-1,-5.756161E-2,1E0,2.6146138E-2,-6.370517E-2,8.308572E-2,-1.32442955E-2,-2.0652924E-2,-3.4508657E-2,-2.5996067E-2,-1.0591363E-1,-4.211554E-2,1.9E1,-3.709607E-1,-1.45E0,-1.6420692E-2,1.1037262E-3,1E0,-2.1251477E-1,-5.26102E-2,-1.2162092E-1,-2.2075882E-2,8.3994485E-2,1.585927E-1,-1.4019274E-2,2.6896708E-3,-1.0832055E-2,-5.3629834E-2,-2.0725673E-2,-5.10003E-2,-1.9397404E-2,2.1027032E-2,-1.8683158E-2,-7.3991425E-2,3.4968257E-3,3.471771E-2,-8.672178E-3,9.114353E-2,-8.210469E-3,8.307511E-3,-1.3270906E-1,-8.073427E-2,-2.1703739E-2,2.9393658E-4,2.8568575E-2,5.195951E-3,-2.8920397E-2,1.0633854E-2,1.6933883E-3,2.3761278E-2,-4.4575498E-2,-7.427409E-3,3.2871548E-2,-7.127613E-3,-1.9916547E-3,1.7680738E-2,-7.4830535E-3,-4.1360926E-2,-6.5215975E-3,4.3952614E-3,-1.8102704E-2,-7.5609796E-3,1.3552934E-2,-9.243192E-3,-2.115078E-2,1.1322829E-3,2.414628E-2,-0E0,-7.009264E-3,-4.4726823E-2,7.2579696E-3,-3.9926614E-3,8.566805E-3,-1.5666878E-2,1.0965489E-2,2.7448012E-2,-2.268005E-2,2.1582954E-2,-5.618995E-2,-1.6938455E-2,2.315016E-2,-1.5000823E-2,2.6784688E-2,7.0960395E-4],"split_indices":[34,14,41,39,61,65,14,75,0,0,52,78,60,10,60,36,83,24,67,76,76,75,65,43,55,45,81,0,36,16,51,80,84,51,0,43,41,72,36,65,58,0,0,83,70,0,0,0,0,36,52,38,60,55,67,47,44,0,0,0,0,0,0,0,0,0,0,0,0,0,0,0,0,0,0,0,0,0,0,0,0,0,0,0,0,0,0,0,0,0,0,0,0,0,0,0,0,0,0],"split_type":[0,0,0,0,0,0,0,0,0,0,0,0,0,0,0,0,0,0,0,0,0,0,0,0,0,0,0,0,0,0,0,0,0,0,0,0,0,0,0,0,0,0,0,0,0,0,0,0,0,0,0,0,0,0,0,0,0,0,0,0,0,0,0,0,0,0,0,0,0,0,0,0,0,0,0,0,0,0,0,0,0,0,0,0,0,0,0,0,0,0,0,0,0,0,0,0,0,0,0],"sum_hessian":[1.1173675E4,7.4699995E3,3.703675E3,5.345814E3,2.1241858E3,4.3683508E2,3.2668398E3,3.7864568E3,1.5593569E3,1.7381512E1,2.1068042E3,3.9203094E2,4.480413E1,2.4753557E3,7.914842E2,3.5130322E3,2.734247E2,9.6142755E2,5.979294E2,9.4141724E2,1.165387E3,2.07077E1,3.7132324E2,2.1083618E1,2.3720514E1,1.0795978E3,1.395758E3,4.7985012E1,7.4349915E2,3.2650884E3,2.479437E2,4.3474144E1,2.2995056E2,9.47945E2,1.3482522E1,3.584018E2,2.395276E2,1.4867088E2,7.9274634E2,1.010111E3,1.55276E2,1.0506531E1,1.0201169E1,1.8429767E2,1.8702557E2,1.0616411E1,1.0467207E1,1.1058432E1,1.2662083E1,1.1809352E2,9.615043E2,3.03879E2,1.091879E3,2.1508467E1,2.6476545E1,1.3045192E2,6.1304724E2,4.9347195E1,3.2157412E3,6.5003975E1,1.8293973E2,2.417441E1,1.9299734E1,7.151102E1,1.5843954E2,1.5202883E1,9.327421E2,1.5208805E1,3.43193E2,1.4190688E2,9.762073E1,1.2054606E2,2.8124828E1,3.8696698E2,4.057794E2,3.6438016E2,6.457309E2,8.064562E1,7.463038E1,7.930884E1,1.0498882E2,3.964977E1,1.4737581E2,1.0129545E2,1.6798077E1,7.2670276E2,2.3480148E2,2.1380626E2,9.007272E1,1.0105607E3,8.131827E1,1.0855174E1,1.0653293E1,1.4975271E1,1.1501274E1,1.0868888E1,1.1958304E2,2.5449541E1,5.875977E2],"tree_param":{"num_deleted":"0","num_feature":"88","num_nodes":"99","size_leaf_vector":"1"}},{"base_weights":[-2.9851133E-3,7.7986486E-2,-2.9887186E-2,-1.8335603E-1,1.0273129E-1,-3.6898607E-1,-2.3111328E-2,2.842474E-2,-2.2840354E-1,-1.3592458E-2,1.5582004E-1,-4.5722935E-1,1.2748475E-2,4.460344E-3,-1.0298708E-1,2.0675129E-1,-2.9939795E-1,4.5134503E-2,-2.0766856E-1,2.1158238E-1,4.9950954E-2,-6.9228643E-1,-2.1878141E-1,-2.9766223E-1,1.4597E-2,-2.6069257E-1,-5.1767107E-2,5.3926957E-1,-2.3738137E-2,1.6071545E-2,-3.5266894E-1,-1.1607412E-1,1.399118E-1,2.6312757E-2,-2.8572646E-1,1.9754292E-1,8.301054E-1,-5.6880847E-2,1.676524E-1,-8.456229E-1,-0E0,2.0922829E-1,-4.8332286E-1,-5.262782E-1,-1.0114954E-1,4.5993347E-2,-5.0459523E-2,-4.3807188E-1,-1.3567461E-1,-1.8854E-1,-7.0178066E-3,4.203522E-2,8.571313E-3,-7.983457E-3,-2.7376318E-2,5.8759074E-4,-2.0576319E-2,4.1040566E-2,5.576161E-3,-1.1684439E-2,-4.6659674E-2,2.417728E-2,8.380781E-3,1.1344246E-2,6.1108556E-2,2.689293E-2,-5.7474286E-3,3.041928E-2,3.1274215E-3,-2.3038547E-2,-5.2193623E-2,3.6101785E-2,-9.007683E-3,-3.3772066E-2,1.00844765E-4,-3.2278396E-2,1.9058842E-2,-1.1306419E-2,2.260695E-2,9.7435815E-3,1.2064121E-3,-4.823733E-3,4.991758E-3,-1.40321255E-2,-3.1753294E-2,-8.936055E-3,3.583185E-2,-3.1136754E-3,-1.919869E-2,-4.8112134E-3,4.534652E-3],"categories":[],"categories_nodes":[],"categories_segments":[],"categories_sizes":[],"default_left":[0,0,0,0,0,0,0,0,0,0,0,0,0,0,0,0,0,0,0,0,0,0,0,0,0,0,0,0,0,0,0,0,0,0,0,0,0,0,0,0,0,0,0,0,0,0,0,0,0,0,0,0,0,0,0,0,0,0,0,0,0,0,0,0,0,0,0,0,0,0,0,0,0,0,0,0,0,0,0,0,0,0,0,0,0,0,0,0,0,0,0],"id":13,"left_children":[1,3,5,7,9,11,13,-1,15,17,19,21,-1,23,25,27,29,31,33,35,37,39,41,43,45,47,49,51,-1,-1,53,55,57,-1,59,61,63,65,67,69,-1,71,73,75,77,79,81,83,85,87,89,-1,-1,-1,-1,-1,-1,-1,-1,-1,-1,-1,-1,-1,-1,-1,-1,-1,-1,-1,-1,-1,-1,-1,-1,-1,-1,-1,-1,-1,-1,-1,-1,-1,-1,-1,-1,-1,-1,-1,-1],"loss_changes":[2.4248064E1,1.7960821E1,1.9156479E1,8.227447E0,1.5681093E1,9.132641E0,1.8059742E1,0E0,7.0950327E0,9.089198E0,1.0249428E1,7.8081665E0,0E0,1.863486E1,1.6950974E1,7.578519E0,6.601042E0,9.352778E0,1.0742296E1,9.635624E0,7.603434E0,7.5960693E0,8.391536E0,8.757254E0,1.2044964E1,1.1305771E1,9.710327E0,2.2233481E0,0E0,0E0,6.656456E0,8.593043E0,7.2682595E0,0E0,5.3345165E0,9.410255E0,5.4522514E0,1.0947136E1,1.3218388E1,3.8434067E0,0E0,5.861033E0,4.315737E0,1.0104166E1,7.5259533E0,1.2924206E1,1.3278643E1,6.3102646E0,1.1224943E1,9.589104E0,1.04652815E1,0E0,0E0,0E0,0E0,0E0,0E0,0E0,0E0,0E0,0E0,0E0,0E0,0E0,0E0,0E0,0E0,0E0,0E0,0E0,0E0,0E0,0E0,0E0,0E0,0E0,0E0,0E0,0E0,0E0,0E0,0E0,0E0,0E0,0E0,0E0,0E0,0E0,0E0,0E0,0E0],"parents":[2147483647,0,0,1,1,2,2,3,3,4,4,5,5,6,6,8,8,9,9,10,10,11,11,13,13,14,14,15,15,16,16,17,17,18,18,19,19,20,20,21,21,22,22,23,23,24,24,25,25,26,26,27,27,30,30,31,31,32,32,34,34,35,35,36,36,37,37,38,38,39,39,41,41,42,42,43,43,44,44,45,45,46,46,47,47,48,48,49,49,50,50],"right_children":[2,4,6,8,10,12,14,-1,16,18,20,22,-1,24,26,28,30,32,34,36,38,40,42,44,46,48,50,52,-1,-1,54,56,58,-1,60,62,64,66,68,70,-1,72,74,76,78,80,82,84,86,88,90,-1,-1,-1,-1,-1,-1,-1,-1,-1,-1,-1,-1,-1,-1,-1,-1,-1,-1,-1,-1,-1,-1,-1,-1,-1,-1,-1,-1,-1,-1,-1,-1,-1,-1,-1,-1,-1,-1,-1,-1],"split_conditions":[-1.00137964E-1,7E0,3.0957952E0,-5.991286E-2,7.6385713E0,6.6398725E-2,1.03E2,2.842474E-2,-9.2815734E-2,1E0,7.6E1,-1.4260532E-2,1.2748475E-2,-1.8721747E-1,2E0,5.687927E-3,-7.2759226E-2,1E0,-1.1018938E-1,1.7951667E-1,1.9148815E-2,8.691539E-2,-1.0139411E-2,-6.8987086E-3,3.093734E-2,-2.3356391E-2,-3.7552983E-2,2.633996E-2,-2.3738137E-2,1.6071545E-2,9.669413E-3,2.895969E-2,-1.4114425E-1,2.6312757E-2,1.0402978E-1,-9.566199E-2,-2.6926095E-2,-8.249305E-2,-4.4097133E-2,-3.4127705E-2,-0E0,2.758614E-4,1E0,1.0610926E-1,8.332166E1,-8.377E-2,8.594691E-2,3.709266E-2,1.2832245E-1,2.0055473E-2,4.2861775E-3,4.203522E-2,8.571313E-3,-7.983457E-3,-2.7376318E-2,5.8759074E-4,-2.0576319E-2,4.1040566E-2,5.576161E-3,-1.1684439E-2,-4.6659674E-2,2.417728E-2,8.380781E-3,1.1344246E-2,6.1108556E-2,2.689293E-2,-5.7474286E-3,3.041928E-2,3.1274215E-3,-2.3038547E-2,-5.2193623E-2,3.6101785E-2,-9.007683E-3,-3.3772066E-2,1.00844765E-4,-3.2278396E-2,1.9058842E-2,-1.1306419E-2,2.260695E-2,9.7435815E-3,1.2064121E-3,-4.823733E-3,4.991758E-3,-1.40321255E-2,-3.1753294E-2,-8.936055E-3,3.583185E-2,-3.1136754E-3,-1.919869E-2,-4.8112134E-3,4.534652E-3],"split_indices":[38,14,30,47,18,80,14,0,55,35,14,77,0,47,32,59,68,84,61,43,49,49,71,40,52,56,69,75,0,0,54,77,56,0,61,55,75,73,80,55,0,83,9,52,19,68,38,39,55,74,46,0,0,0,0,0,0,0,0,0,0,0,0,0,0,0,0,0,0,0,0,0,0,0,0,0,0,0,0,0,0,0,0,0,0,0,0,0,0,0,0],"split_type":[0,0,0,0,0,0,0,0,0,0,0,0,0,0,0,0,0,0,0,0,0,0,0,0,0,0,0,0,0,0,0,0,0,0,0,0,0,0,0,0,0,0,0,0,0,0,0,0,0,0,0,0,0,0,0,0,0,0,0,0,0,0,0,0,0,0,0,0,0,0,0,0,0,0,0,0,0,0,0,0,0,0,0,0,0,0,0,0,0,0,0],"sum_hessian":[1.1131764E4,2.7746938E3,8.357069E3,2.3909001E2,2.5356038E3,1.6238277E2,8.194687E3,1.2733068E1,2.2635695E2,7.942245E2,1.7413794E3,1.4263763E2,1.974513E1,6.091651E3,2.103036E3,3.12839E1,1.9507304E2,6.099172E2,1.843073E2,1.1393362E3,6.0204315E2,7.065988E1,7.197775E1,1.9650801E2,5.8951426E3,5.140971E2,1.5889388E3,2.1264275E1,1.0019626E1,1.486957E1,1.8020348E2,2.2534445E2,3.8457275E2,1.70428E1,1.672645E2,1.1154973E3,2.3838902E1,3.1541953E2,2.8662363E2,5.7650696E1,1.3009189E1,2.7429613E1,4.4548138E1,8.982353E1,1.0668448E2,3.977451E3,1.9176918E3,2.1117361E2,3.0292352E2,3.9036612E2,1.1985728E3,1.0831163E1,1.0433111E1,9.170516E1,8.8498314E1,1.577266E2,6.761786E1,1.4133962E1,3.7043878E2,1.5622397E2,1.1040527E1,1.0391611E2,1.0115812E3,1.0113035E1,1.3725866E1,2.7168673E1,2.8825085E2,5.4085728E1,2.325379E2,2.090244E1,3.6748257E1,1.1580653E1,1.584896E1,3.1781855E1,1.2766281E1,7.9740074E1,1.0083458E1,8.765637E1,1.9028107E1,5.0774658E2,3.4697043E3,1.4689673E3,4.4872458E2,1.1900336E2,9.217025E1,2.8922375E2,1.3699775E1,2.382604E2,1.5210571E2,6.270957E2,5.7147705E2],"tree_param":{"num_deleted":"0","num_feature":"88","num_nodes":"91","size_leaf_vector":"1"}},{"base_weights":[-1.7240738E-3,1.4877627E-2,-1.05447255E-1,-3.4732554E-2,6.731681E-2,-8.677383E-2,-4.9192852E-1,-1.0062428E-2,-2.3097092E-1,-1.0585613E-2,1.14185326E-1,1.9736177E-1,-1.1174378E-1,-8.395626E-1,-1.7513907E-1,-1.360729E-1,2.8636636E-2,-2.0147029E-1,-8.8660854E-1,1.7164335E-2,-2.4831113E-1,1.7206636E-1,1.192948E-2,-1.1616295E-2,5.9711444E-1,-3.8172516E-1,-8.358799E-2,-1.6356496E-2,-6.143239E-2,1.4949276E-2,-3.4119602E-2,-1.7581609E-1,1.9527097E-1,1.4112318E-1,-4.870158E-2,-3.8477248E-1,-1.01398975E-1,-1.958101E-2,-6.3001625E-2,-5.4177783E-2,1.2532504E-1,-3.1759346E-1,2.4491293E-2,-1.7480008E-2,2.1676528E-1,7.1630234E-1,-3.347158E-3,5.200709E-1,-2.1190536E-1,-9.08096E-3,8.5656214E-1,1.8822523E-2,-4.5397213E-1,-1.5135537E-2,-1.8502259E-1,-7.4054147E-3,-3.3787753E-2,-2.9739464E-2,1.5278286E-2,-1.2876305E-2,7.907526E-3,5.0154835E-4,-8.092873E-3,-5.7908143E-3,-2.5707815E-2,-2.1073205E-2,-1.3836317E-3,-8.704535E-3,1.3160125E-3,7.10016E-3,-3.489546E-2,-1.9097826E-2,1.9746693E-2,1.7290615E-2,-4.348845E-3,9.386102E-3,2.7991159E-2,5.961263E-2,1.0409984E-2,-1.4567585E-3,1.5334074E-2,5.039245E-2,-5.297453E-4,1.148688E-2,-2.6926626E-2,2.6596362E-2,6.512729E-2,-9.928138E-3,-3.5468634E-2,1.7753838E-3,-1.3052789E-2,-3.5423469E-3,-1.858991E-2],"categories":[],"categories_nodes":[],"categories_segments":[],"categories_sizes":[],"default_left":[0,0,0,0,0,0,0,0,0,0,0,0,0,0,0,0,0,0,0,0,0,0,0,0,0,0,0,0,0,0,0,0,0,0,0,0,0,0,0,0,0,0,0,0,0,0,0,0,0,0,0,0,0,0,0,0,0,0,0,0,0,0,0,0,0,0,0,0,0,0,0,0,0,0,0,0,0,0,0,0,0,0,0,0,0,0,0,0,0,0,0,0,0],"id":14,"left_children":[1,3,5,7,9,11,13,15,17,19,21,23,25,27,29,31,33,35,37,39,41,43,45,47,49,51,53,-1,-1,-1,-1,55,57,59,61,63,65,-1,-1,67,69,71,-1,73,75,77,79,81,83,-1,85,-1,87,89,91,-1,-1,-1,-1,-1,-1,-1,-1,-1,-1,-1,-1,-1,-1,-1,-1,-1,-1,-1,-1,-1,-1,-1,-1,-1,-1,-1,-1,-1,-1,-1,-1,-1,-1,-1,-1,-1,-1],"loss_changes":[1.927868E1,2.5098946E1,1.1048231E1,2.396769E1,1.7137217E1,1.0478906E1,7.5417213E0,2.1491753E1,1.0408346E1,1.1651187E1,1.731791E1,1.0023083E1,1.0235901E1,6.0845013E0,9.483722E0,1.3669411E1,2.9330421E1,9.645672E0,3.661211E0,1.2193452E1,9.579975E0,1.58664665E1,1.148552E1,8.502053E0,8.527654E0,7.164015E0,8.520047E0,0E0,0E0,0E0,0E0,1.2637114E1,9.83514E0,9.354982E0,1.3288782E1,6.373438E0,8.083187E0,0E0,0E0,9.201195E0,8.668455E0,7.923458E0,0E0,9.025556E0,1.490078E1,5.0907917E0,8.287035E0,5.751932E0,8.56421E0,0E0,3.626814E0,0E0,7.400795E0,9.201636E0,1.0486786E1,0E0,0E0,0E0,0E0,0E0,0E0,0E0,0E0,0E0,0E0,0E0,0E0,0E0,0E0,0E0,0E0,0E0,0E0,0E0,0E0,0E0,0E0,0E0,0E0,0E0,0E0,0E0,0E0,0E0,0E0,0E0,0E0,0E0,0E0,0E0,0E0,0E0,0E0],"parents":[2147483647,0,0,1,1,2,2,3,3,4,4,5,5,6,6,7,7,8,8,9,9,10,10,11,11,12,12,13,13,14,14,15,15,16,16,17,17,18,18,19,19,20,20,21,21,22,22,23,23,24,24,25,25,26,26,31,31,32,32,33,33,34,34,35,35,36,36,39,39,40,40,41,41,43,43,44,44,45,45,46,46,47,47,48,48,50,50,52,52,53,53,54,54],"right_children":[2,4,6,8,10,12,14,16,18,20,22,24,26,28,30,32,34,36,38,40,42,44,46,48,50,52,54,-1,-1,-1,-1,56,58,60,62,64,66,-1,-1,68,70,72,-1,74,76,78,80,82,84,-1,86,-1,88,90,92,-1,-1,-1,-1,-1,-1,-1,-1,-1,-1,-1,-1,-1,-1,-1,-1,-1,-1,-1,-1,-1,-1,-1,-1,-1,-1,-1,-1,-1,-1,-1,-1,-1,-1,-1,-1,-1,-1],"split_conditions":[1.96E2,1E0,1.2543081E-1,8.264636E-2,-1.6757226E-2,5E0,-8.641064E-3,1E0,1.2739731E-1,8.410513E-2,1.9573476E-2,2.9689407E-2,-3.709607E-1,1.8174201E-2,7.105754E-2,1.1922383E-1,1E0,6.959336E1,-1.0549206E-2,1.7832862E-2,9.9440105E-2,-6.0460404E-2,-1.3906911E-1,1E0,-1.1829777E-1,-8.306603E-2,1.641621E-2,-1.6356496E-2,-6.143239E-2,1.4949276E-2,-3.4119602E-2,1E0,-6.0982E-2,-1.4833851E-1,1E0,-3.07986E-2,-5.4930937E-2,-1.958101E-2,-6.3001625E-2,-1.3382031E-2,1.4496768E-1,1.5948965E-1,2.4491293E-2,-7.058364E-2,1.7419404E-1,3.0163233E-4,2.5252002E-1,2.1470673E-2,3.24E2,-9.08096E-3,-2.2196313E-3,1.8822523E-2,4.1021924E-3,6.9615595E-2,2.0055473E-2,-7.4054147E-3,-3.3787753E-2,-2.9739464E-2,1.5278286E-2,-1.2876305E-2,7.907526E-3,5.0154835E-4,-8.092873E-3,-5.7908143E-3,-2.5707815E-2,-2.1073205E-2,-1.3836317E-3,-8.704535E-3,1.3160125E-3,7.10016E-3,-3.489546E-2,-1.9097826E-2,1.9746693E-2,1.7290615E-2,-4.348845E-3,9.386102E-3,2.7991159E-2,5.961263E-2,1.0409984E-2,-1.4567585E-3,1.5334074E-2,5.039245E-2,-5.297453E-4,1.148688E-2,-2.6926626E-2,2.6596362E-2,6.512729E-2,-9.928138E-3,-3.5468634E-2,1.7753838E-3,-1.3052789E-2,-3.5423469E-3,-1.858991E-2],"split_indices":[14,7,50,72,67,0,83,8,53,81,63,69,36,65,44,44,11,19,44,76,75,66,75,11,42,66,83,0,0,0,0,11,69,53,3,66,68,0,0,69,73,37,0,62,45,65,36,44,14,0,59,0,78,72,74,0,0,0,0,0,0,0,0,0,0,0,0,0,0,0,0,0,0,0,0,0,0,0,0,0,0,0,0,0,0,0,0,0,0,0,0,0,0],"split_type":[0,0,0,0,0,0,0,0,0,0,0,0,0,0,0,0,0,0,0,0,0,0,0,0,0,0,0,0,0,0,0,0,0,0,0,0,0,0,0,0,0,0,0,0,0,0,0,0,0,0,0,0,0,0,0,0,0,0,0,0,0,0,0,0,0,0,0,0,0,0,0,0,0,0,0,0,0,0,0,0,0,0,0,0,0,0,0,0,0,0,0,0,0],"sum_hessian":[1.118847E4,9.64466E3,1.5438103E3,4.9552075E3,4.689452E3,1.4740715E3,6.973873E1,4.403218E3,5.5199005E2,1.7610188E3,2.9284333E3,1.18196205E2,1.3558754E3,3.2313305E1,3.7425423E1,1.0345669E3,3.368651E3,5.2961945E2,2.2370588E1,1.577395E3,1.8362381E2,1.8688988E3,1.0595347E3,7.8092636E1,4.0103573E1,1.26526215E2,1.2293491E3,1.4851447E1,1.7461859E1,1.945472E1,1.7970705E1,9.2445404E2,1.1011285E2,1.3726432E3,1.9960076E3,1.8567374E2,3.4394574E2,1.0615644E1,1.1754944E1,9.5021423E2,6.271808E2,1.6851228E2,1.511153E1,3.563144E2,1.5125845E3,2.1656519E1,1.0378782E3,2.0794827E1,5.729781E1,1.0000765E1,3.0102808E1,1.052107E1,1.1600514E2,7.3528326E2,4.9406586E2,8.773268E2,4.712723E1,1.2839794E1,9.727305E1,5.5408306E1,1.3172349E3,1.31401E3,6.819976E2,6.117481E1,1.24498924E2,6.3257145E1,2.806886E2,3.8169965E2,5.685146E2,6.15657E2,1.1523808E1,1.5510576E2,1.3406518E1,5.6347126E1,2.9996725E2,1.3962194E3,1.1636511E2,1.0385197E1,1.1271321E1,9.593117E2,7.856644E1,1.0464907E1,1.0329919E1,2.4355902E1,3.2941906E1,1.88203E1,1.1282509E1,5.908605E1,5.6919094E1,6.100935E2,1.2518972E2,3.078142E2,1.8625166E2],"tree_param":{"num_deleted":"0","num_feature":"88","num_nodes":"93","size_leaf_vector":"1"}},{"base_weights":[5.0024255E-3,-9.222273E-3,1.4510487E-1,-9.659822E-2,1.2091715E-2,3.4797952E-1,1.0178428E-1,-1.1355132E-1,3.2708448E-1,9.281911E-2,-2.2811571E-2,1.6007815E-1,6.6508996E-1,-1.9839378E-1,1.3986777E-1,-2.2494432E-1,-5.919769E-2,6.073323E-1,-3.365846E-1,-2.0817159E-1,1.13858216E-1,-5.2802008E-2,8.610125E-2,3.1111598E-1,-3.5858315E-1,7.920354E-1,-9.839741E-4,-3.9011845E-1,2.6910359E-2,3.418122E-1,9.279607E-2,-1.7074688E-1,-6.1536425E-1,-2.5030243E-1,-4.050117E-3,2.9406357E-1,9.4715285E-1,-3.4153514E-2,4.9670935E-3,3.8017938E-1,-3.084973E-1,1.6714907E-1,1.9407008E-2,-1.4511277E-1,-1.8784568E-2,6.760234E-2,5.919855E-1,1.8051438E-1,5.514681E-2,-4.094318E-2,9.585448E-3,4.869159E-1,1.0394484E0,-5.942906E-2,-6.181059E-1,1.4123215E-1,7.611497E-1,4.8024446E-2,3.1626546E-1,-6.091355E-3,-2.5010651E-2,-4.2131428E-2,-5.047067E-3,-1.1606413E-3,-1.9021314E-2,-5.623741E-3,4.501702E-3,-1.6103394E-2,3.2468684E-2,6.2477548E-2,2.147198E-2,-4.5139925E-3,4.1858744E-2,-5.317641E-3,-2.8557668E-2,6.9728442E-3,2.1766929E-2,-9.013133E-3,5.639743E-3,-2.538244E-3,-1.4759078E-2,-3.8217006E-3,2.129542E-3,2.6039032E-3,3.0318946E-2,-3.1209614E-3,4.0807076E-2,-8.806229E-3,1.955453E-2,3.9955687E-2,-3.6018816E-4,2.2834418E-2,6.537571E-2,1.4386438E-2,-3.79162E-2,-4.004172E-2,2.7167294E-4,3.871677E-2,-1.381271E-3,1.743297E-2,5.935812E-2,-1.1329373E-2,4.9078325E-3,3.1289093E-2,2.3920264E-3],"categories":[],"categories_nodes":[],"categories_segments":[],"categories_sizes":[],"default_left":[0,0,0,0,0,0,0,0,0,0,0,0,0,0,0,0,0,0,0,0,0,0,0,0,0,0,0,0,0,0,0,0,0,0,0,0,0,0,0,0,0,0,0,0,0,0,0,0,0,0,0,0,0,0,0,0,0,0,0,0,0,0,0,0,0,0,0,0,0,0,0,0,0,0,0,0,0,0,0,0,0,0,0,0,0,0,0,0,0,0,0,0,0,0,0,0,0,0,0,0,0,0,0,0,0],"id":15,"left_children":[1,3,5,7,9,11,13,15,17,19,21,23,25,27,29,31,33,35,37,39,41,43,45,47,49,51,-1,53,-1,55,57,59,61,63,65,67,69,-1,-1,71,73,75,77,79,81,83,85,87,-1,-1,-1,89,91,93,95,97,99,101,103,-1,-1,-1,-1,-1,-1,-1,-1,-1,-1,-1,-1,-1,-1,-1,-1,-1,-1,-1,-1,-1,-1,-1,-1,-1,-1,-1,-1,-1,-1,-1,-1,-1,-1,-1,-1,-1,-1,-1,-1,-1,-1,-1,-1,-1,-1],"loss_changes":[2.2257635E1,1.8879599E1,8.966934E0,1.4295036E1,2.296019E1,1.0555462E1,9.7402525E0,1.153759E1,1.4463075E1,1.5591021E1,1.8575867E1,9.095465E0,5.880268E0,1.3728523E1,7.10446E0,1.3066616E1,1.3540109E1,5.3738117E0,3.6387713E0,9.598511E0,1.1555056E1,1.3986745E1,1.1381015E1,8.933129E0,6.8541536E0,3.5923004E0,0E0,5.6800394E0,0E0,1.174581E1,6.094382E0,8.765282E0,8.673376E0,8.456991E0,1.0217668E1,6.7738E0,3.2758465E0,0E0,0E0,5.2500744E0,7.1999817E0,1.0796158E1,1.5517123E1,1.694223E1,1.1545312E1,9.8180895E0,6.431321E0,5.9612646E0,0E0,0E0,0E0,4.2929106E0,3.9184113E0,8.173828E0,5.225851E0,1.0513058E1,7.4378033E0,7.0760765E0,8.375206E0,0E0,0E0,0E0,0E0,0E0,0E0,0E0,0E0,0E0,0E0,0E0,0E0,0E0,0E0,0E0,0E0,0E0,0E0,0E0,0E0,0E0,0E0,0E0,0E0,0E0,0E0,0E0,0E0,0E0,0E0,0E0,0E0,0E0,0E0,0E0,0E0,0E0,0E0,0E0,0E0,0E0,0E0,0E0,0E0,0E0,0E0],"parents":[2147483647,0,0,1,1,2,2,3,3,4,4,5,5,6,6,7,7,8,8,9,9,10,10,11,11,12,12,13,13,14,14,15,15,16,16,17,17,18,18,19,19,20,20,21,21,22,22,23,23,24,24,25,25,27,27,29,29,30,30,31,31,32,32,33,33,34,34,35,35,36,36,39,39,40,40,41,41,42,42,43,43,44,44,45,45,46,46,47,47,51,51,52,52,53,53,54,54,55,55,56,56,57,57,58,58],"right_children":[2,4,6,8,10,12,14,16,18,20,22,24,26,28,30,32,34,36,38,40,42,44,46,48,50,52,-1,54,-1,56,58,60,62,64,66,68,70,-1,-1,72,74,76,78,80,82,84,86,88,-1,-1,-1,90,92,94,96,98,100,102,104,-1,-1,-1,-1,-1,-1,-1,-1,-1,-1,-1,-1,-1,-1,-1,-1,-1,-1,-1,-1,-1,-1,-1,-1,-1,-1,-1,-1,-1,-1,-1,-1,-1,-1,-1,-1,-1,-1,-1,-1,-1,-1,-1,-1,-1,-1],"split_conditions":[1.16957866E-1,1E0,-1.282233E-1,1.7384318E-1,1E0,1.5661627E-2,-8.16595E-2,-2.7443845E-2,1.4523809E1,-1.5886302E-1,1.01236634E-1,1.5446013E-2,3.300716E-1,5.3743903E-2,-1.2516664E-1,6.748459E-2,-9.545317E-2,4.2325E0,2.680482E1,-6.5753356E-2,2E0,3.983086E0,4.1141248E-1,5.9947595E-2,2.7102875E-2,-1.9880597E-2,-9.839741E-4,-6.7827874E-3,2.6910359E-2,2.085738E-2,2.0141566E-1,1.0097098E-1,3.1157488E-2,-1.6747782E-2,-6.427739E-2,-2.6794696E-2,2.2140596E-2,-3.4153514E-2,4.9670935E-3,4.570724E-2,-1.538711E-2,8.2174025E-2,-3.7468914E-2,2.3949996E-2,-2.943106E-3,1.2641512E-1,-2.9543946E-2,-5.575192E-2,5.514681E-2,-4.094318E-2,9.585448E-3,-7.991685E-2,-2.750195E-2,2.1781525E-1,5.3209525E-2,-2.9869258E-2,-1.345147E-2,-1.15208186E-1,5.7965778E-2,-6.091355E-3,-2.5010651E-2,